0_0_0,0.04450929,0.03864211,0.025738325,0.02065284,0.008315362,0.002410893,-0.006418671,-0.0137728425,-0.01996806,-0.024081748,-0.028184285,-0.032432638,-0.036804028,-0.04111579,-0.044068463,-0.046861142,-0.049319584,-0.051507134,-0.053007152,-0.054370917,-0.05528333,-0.055792756,-0.056163512,-0.05675544,-0.05657885,-0.056836534,-0.05689836,-0.05694008,-0.057121236,-0.056773573,-0.056665204,-0.05677413,-0.056684937,-0.05653105,-0.05651117,-0.05672407,-0.056612965,-0.05660046,-0.05649639,-0.056536905,-0.056343783,-0.05640578,-0.05622073,-0.05604926,-0.056186892,-0.05571922,-0.05589429,-0.05576565,-0.05546626,-0.055611547,-0.055460725,-0.05546636,-0.055468336,-0.055286527,-0.055371083,-0.055156533,-0.055054408,-0.055206954,-0.055026922,-0.055032644,-0.054901272,-0.054820094,-0.054633234,-0.054652207,-0.054593515,-0.0546462,-0.054551564,-0.054498848,-0.054434907,-0.054367684,-0.05428767,-0.05420618,-0.054165337,-0.05409084,-0.05409534,-0.054011915,-0.054043822,-0.05395278,-0.053981334,-0.053918716,-0.053912923,-0.053879052,-0.05388467,-0.05380916,-0.0537581,-0.053755153,-0.053775623,-0.053727716,-0.053728066,-0.053736117,-0.05370313,-0.05371254,-0.053711794,-0.053682555,-0.053698838,-0.053667746,-0.053668972,-0.053673275,-0.05366614,-0.05366536,-0.053668294,-0.053664584,-0.053657793,-0.05365547,-0.053653266,-0.05365246,-0.05364976,-0.053650457,-0.05364927,-0.053649098,-0.0536481,-0.053647194,-0.05364807,-0.053647853,-0.05364736,-0.053647324,-0.053646833,-0.053647064,-0.053647004,-0.053646877,-0.05364692,-0.053646814,-0.053646766,-0.053646795,-0.053646736,-0.053646658,-0.053646687,-0.053646658,-0.05364668,-0.053646646,-0.0536466,-0.053646613,-0.053646587,-0.05364657,-0.053646557,-0.05364655,-0.05364657,-0.053646572,-0.053646583,-0.053646598,-0.05364655,-0.053646583,-0.05364656,-0.053646535,-0.05364657,-0.05364658,-0.05364656,-0.053646542,-0.053646572,-0.05364657,-0.053646512,-0.053646535,-0.053646542,-0.053646535,-0.053646527,-0.0536465,-0.0536465,-0.05364647,-0.053646516,-0.053646464,-0.05364649,-0.0536465,-0.053646397,-0.053646374,-0.05364639,-0.053646397,-0.053646363,-0.053646244,-0.053646386,-0.053646363,-0.05364638,-0.053646334,-0.0536463,-0.05364633,-0.05364636,-0.05364636,-0.053647075,-0.053645425,-0.0536435,-0.053659115,-0.05365122,-0.053644013,-0.053543948,-0.053661417,-0.05349737,-0.049946375,-0.05729551,-0.05844672,-0.05605401,-0.053805668,-0.05360504,-0.053389538,-0.052747566,-0.053092852,-0.05301037,-0.0530615,-0.05304386,-0.053039555,-0.053038005,-0.053035114
0_0_1,0.09500934,0.12437521,0.1497393,0.17955178,0.1994005,0.22621247,0.25155208,0.27425647,0.3066334,0.33793688,0.36802647,0.39818376,0.42348504,0.45025963,0.47127897,0.48985317,0.5078813,0.5205557,0.530795,0.5384967,0.5435176,0.54720455,0.5502892,0.5512127,0.55312467,0.55369717,0.5537983,0.55412436,0.55438167,0.5545111,0.5543163,0.55424064,0.5546566,0.55429465,0.55392367,0.55373615,0.5537136,0.5536565,0.55393225,0.5535064,0.55352837,0.5533884,0.5531997,0.55310285,0.55284446,0.553277,0.55308795,0.552996,0.55281633,0.55262434,0.55251884,0.5524806,0.55256814,0.55224717,0.55209005,0.55214256,0.5520454,0.55198324,0.551937,0.55177945,0.55173963,0.5519025,0.55162585,0.5515392,0.5515175,0.55145985,0.5513938,0.55132306,0.5512121,0.55126405,0.55127835,0.5511942,0.55115736,0.551059,0.55106527,0.5510245,0.5510191,0.5509386,0.550951,0.5509164,0.55090904,0.55091286,0.5508788,0.5508642,0.5508287,0.5508167,0.5508289,0.55079687,0.5507913,0.5507906,0.5507758,0.5507753,0.55077296,0.55075496,0.55076456,0.5507405,0.55074275,0.55074257,0.5507393,0.55073774,0.550738,0.5507364,0.55073017,0.5507292,0.55072695,0.55072546,0.55072355,0.5507238,0.550723,0.5507228,0.5507214,0.55072063,0.5507213,0.55072105,0.5507206,0.55072063,0.55072004,0.5507204,0.5507204,0.5507204,0.5507204,0.55072033,0.5507203,0.5507203,0.5507203,0.5507203,0.5507203,0.5507203,0.5507203,0.5507203,0.5507203,0.5507203,0.5507203,0.5507203,0.5507203,0.5507203,0.5507203,0.5507203,0.5507203,0.5507203,0.5507203,0.5507203,0.5507203,0.5507203,0.5507203,0.5507203,0.5507203,0.5507203,0.5507203,0.5507203,0.5507203,0.5507203,0.5507203,0.5507203,0.5507203,0.5507203,0.5507203,0.5507203,0.5507203,0.5507203,0.5507203,0.5507203,0.5507203,0.5507203,0.5507203,0.5507203,0.5507203,0.5507203,0.5507202,0.5507201,0.5507201,0.5507201,0.55072016,0.55072016,0.55072033,0.55072033,0.5507203,0.5507205,0.5507188,0.550723,0.5507227,0.55072176,0.5507672,0.55072343,0.5517035,0.55588806,0.54524213,0.55049485,0.5525591,0.5531128,0.5522199,0.55227256,0.55228496,0.55216163,0.5522177,0.55217564,0.5521815,0.5521784,0.5521828,0.55218166
0_0_2,0.054385196,0.0561363,0.06572591,0.07232984,0.08496441,0.097365744,0.116575316,0.13635024,0.1635959,0.18996675,0.21765321,0.24804658,0.27635264,0.30685484,0.33136275,0.35379076,0.37556005,0.3917843,0.40474978,0.41490507,0.42162004,0.42638397,0.4303244,0.43209168,0.4340492,0.43501422,0.43520397,0.43562448,0.4361383,0.43586144,0.43550503,0.43555033,0.43591458,0.43531182,0.43486267,0.4349074,0.43474388,0.434661,0.43484694,0.43441105,0.43419906,0.43411425,0.43367285,0.43335125,0.433224,0.4331443,0.43314162,0.43287888,0.43230632,0.43226376,0.43195802,0.43192026,0.43202028,0.4314307,0.43135422,0.43115067,0.4309142,0.43102854,0.43075508,0.43058294,0.43037632,0.43046132,0.4299165,0.4298406,0.42974383,0.42974252,0.42955077,0.42940482,0.4291994,0.42917618,0.4290941,0.4288977,0.4288051,0.42860115,0.4286136,0.42846414,0.42849717,0.42829338,0.42834243,0.4282255,0.42821,0.4281727,0.42814082,0.42803124,0.42792752,0.4279104,0.42794946,0.42785376,0.4278477,0.42785674,0.42779922,0.42781016,0.4278069,0.42775008,0.4277811,0.42771545,0.42771944,0.4277245,0.42771205,0.42770925,0.42771325,0.427707,0.4276917,0.4276877,0.42768246,0.42767993,0.4276745,0.42767534,0.42767316,0.42767283,0.42767015,0.42766792,0.4276697,0.42766878,0.42766765,0.42766765,0.42766637,0.42766705,0.42766666,0.42766643,0.42766628,0.42766616,0.427666,0.42766643,0.42766643,0.42766625,0.42766625,0.42766625,0.42766625,0.42766625,0.42766625,0.42766625,0.42766625,0.42766625,0.42766625,0.42766625,0.42766625,0.42766625,0.42766625,0.42766625,0.42766625,0.42766625,0.42766625,0.42766625,0.42766625,0.42766625,0.42766625,0.42766625,0.42766625,0.42766625,0.42766625,0.42766625,0.42766625,0.42766625,0.42766625,0.42766625,0.42766625,0.42766625,0.42766625,0.42766625,0.42766625,0.42766625,0.42766625,0.42766625,0.42766625,0.42766625,0.42766625,0.42766625,0.42766622,0.42766628,0.42766637,0.42766646,0.42766646,0.4276664,0.42766672,0.4276664,0.42766726,0.42766502,0.42766073,0.42768463,0.4276745,0.42766443,0.42759266,0.4276874,0.42859343,0.4318342,0.42138967,0.4304239,0.4299514,0.4282311,0.42701638,0.42687553,0.4262964,0.42647523,0.42646235,0.42646208,0.4264526,0.426445,0.42644846,0.42644465
0_0_3,-0.0055127563,0.0006337689,-0.0042791837,-0.001943164,-0.013596788,-0.017849933,-0.027181033,-0.036285378,-0.043707002,-0.048406776,-0.05352658,-0.059431966,-0.06636904,-0.07342578,-0.07841667,-0.08324986,-0.08765645,-0.091659784,-0.09447738,-0.097033955,-0.098755024,-0.09974489,-0.10048266,-0.10153546,-0.10129179,-0.10175574,-0.101866044,-0.101948194,-0.102269016,-0.10167285,-0.10147907,-0.10166386,-0.101523414,-0.10124583,-0.10119869,-0.10155878,-0.101366386,-0.101342276,-0.101171896,-0.101227045,-0.10089505,-0.10099662,-0.1006723,-0.10037362,-0.10060106,-0.099811226,-0.10010534,-0.09988027,-0.09935883,-0.09960139,-0.09933813,-0.09934629,-0.09935225,-0.09902799,-0.09916831,-0.098800644,-0.09862111,-0.09888095,-0.09856958,-0.09857396,-0.09834603,-0.09821143,-0.09787973,-0.09790919,-0.097807296,-0.097896025,-0.09773046,-0.097636916,-0.097522706,-0.09740853,-0.09727095,-0.097127266,-0.097055376,-0.09692309,-0.096930966,-0.09678537,-0.09684017,-0.09667994,-0.096729785,-0.09662028,-0.09660999,-0.09655161,-0.096560076,-0.09642895,-0.09633923,-0.09633366,-0.09636949,-0.09628537,-0.096285746,-0.096299656,-0.096241996,-0.09625822,-0.0962569,-0.0962056,-0.096234135,-0.09617946,-0.09618169,-0.0961891,-0.096176654,-0.096175246,-0.096180335,-0.09617385,-0.09616191,-0.09615786,-0.09615394,-0.09615253,-0.09614776,-0.09614895,-0.09614688,-0.09614659,-0.096144795,-0.0961432,-0.09614471,-0.096144326,-0.09614346,-0.09614338,-0.0961425,-0.0961429,-0.096142754,-0.09614254,-0.09614261,-0.09614244,-0.096142374,-0.096142426,-0.09614232,-0.09614219,-0.09614224,-0.09614217,-0.09614221,-0.096142165,-0.09614208,-0.096142106,-0.09614204,-0.096141994,-0.09614197,-0.096141964,-0.096141994,-0.09614201,-0.096142024,-0.09614204,-0.09614193,-0.09614198,-0.09614193,-0.096141905,-0.096141964,-0.096141994,-0.09614195,-0.09614193,-0.096141934,-0.09614191,-0.096141845,-0.09614188,-0.096141875,-0.096141875,-0.09614184,-0.09614178,-0.0961418,-0.09614177,-0.096141845,-0.096141756,-0.096141785,-0.096141815,-0.09614165,-0.096141614,-0.096141644,-0.096141666,-0.09614163,-0.09614141,-0.09614164,-0.0961416,-0.096141644,-0.096141554,-0.09614153,-0.09614157,-0.09614163,-0.096141644,-0.0961429,-0.096140034,-0.096136615,-0.0961638,-0.096150115,-0.0961376,-0.09596614,-0.096168034,-0.09592013,-0.09112351,-0.10001012,-0.10123729,-0.09826512,-0.09586436,-0.09561572,-0.09538505,-0.09469327,-0.095061265,-0.09497432,-0.09502794,-0.09500913,-0.095004365,-0.09500288,-0.094999745
0_0_4,0.081217594,0.11937367,0.16207622,0.20491809,0.25000578,0.28806326,0.33041126,0.36617327,0.40715244,0.44210276,0.47520974,0.50817865,0.53680485,0.5660631,0.5881873,0.60782236,0.626381,0.63997316,0.6505632,0.6588102,0.664207,0.6679602,0.67102927,0.6725571,0.67394155,0.6747496,0.6749127,0.6752389,0.6756844,0.6753525,0.67505103,0.6751252,0.6753612,0.6748615,0.6745239,0.6746361,0.67447555,0.6744111,0.67451006,0.67420405,0.6739771,0.6739379,0.6735448,0.673245,0.6732025,0.67297155,0.6730348,0.6727939,0.6722624,0.6722854,0.67200494,0.67197967,0.6720547,0.67155457,0.6715301,0.6713012,0.6710899,0.671231,0.6709638,0.6708394,0.6706393,0.67067176,0.6702029,0.67015433,0.6700617,0.6700806,0.66990525,0.669779,0.6696048,0.66956276,0.66947293,0.66929907,0.6692163,0.66903925,0.66905,0.6689099,0.6689457,0.66876304,0.66880953,0.6687008,0.6686874,0.66864765,0.6686263,0.668518,0.6684234,0.6684097,0.66844577,0.66835797,0.6683536,0.66836303,0.668309,0.66832054,0.6683178,0.6682655,0.6682941,0.66823465,0.668238,0.6682432,0.66823155,0.6682294,0.66823363,0.6682277,0.66821396,0.6682101,0.6682054,0.6682031,0.668198,0.66819894,0.6681968,0.6681963,0.66819394,0.66819215,0.6681938,0.6681929,0.6681921,0.6681921,0.66819096,0.6681915,0.66819143,0.6681911,0.668191,0.6681908,0.6681908,0.6681908,0.6681908,0.6681908,0.6681908,0.6681908,0.6681908,0.6681908,0.6681908,0.6681908,0.6681908,0.6681908,0.6681908,0.6681908,0.6681908,0.6681908,0.6681908,0.6681908,0.6681908,0.6681908,0.6681908,0.6681908,0.6681908,0.6681908,0.6681908,0.6681908,0.6681908,0.6681908,0.6681908,0.6681908,0.6681908,0.6681908,0.6681908,0.6681908,0.6681908,0.6681908,0.6681908,0.6681908,0.6681908,0.6681908,0.6681908,0.6681908,0.6681908,0.6681908,0.6681908,0.6681908,0.6681908,0.66819084,0.66819084,0.66819084,0.6681907,0.66819084,0.66819125,0.668191,0.6681918,0.6681894,0.6681855,0.6682087,0.6681983,0.6681881,0.66809875,0.6682119,0.6688236,0.67036134,0.6645931,0.6749764,0.6737994,0.6718221,0.67073244,0.6705437,0.6698424,0.67010796,0.6700707,0.67008704,0.67007315,0.67006546,0.6700679,0.67006344
0_0_5,0.10872474,0.10248155,0.08998959,0.08574042,0.074903205,0.070749104,0.06433047,0.059398644,0.05656247,0.0557456,0.05507384,0.054553144,0.05357468,0.052963547,0.052926585,0.052782148,0.05289012,0.0525843,0.052574463,0.052363884,0.05220648,0.052230842,0.052299652,0.05189982,0.05229712,0.052144498,0.052103266,0.05210803,0.051982142,0.052302882,0.052373,0.05226794,0.052398738,0.05248775,0.05245823,0.05224779,0.05234228,0.052345853,0.052471936,0.052382752,0.052555047,0.052482937,0.05262194,0.052760452,0.052607015,0.053072553,0.05289474,0.05299637,0.05323757,0.053085543,0.053205244,0.05319543,0.05320446,0.05332472,0.053230524,0.053426288,0.053504344,0.053361893,0.05351508,0.053490575,0.05360168,0.053693503,0.053824455,0.053796962,0.0538462,0.053792488,0.053868018,0.053905904,0.053948756,0.054014646,0.05408722,0.054148976,0.054180603,0.054234467,0.054231253,0.054300115,0.054271184,0.054341957,0.054318145,0.054369338,0.05437357,0.05440404,0.0543949,0.05446004,0.054500937,0.05450209,0.054485448,0.05452399,0.054522987,0.054515738,0.05454317,0.054534756,0.054535136,0.054558847,0.05454557,0.0545702,0.054569382,0.054565568,0.05457149,0.054571994,0.054569427,0.054572523,0.054577805,0.05457972,0.054581415,0.05458196,0.054584127,0.05458353,0.0545845,0.054584645,0.054585382,0.054586075,0.05458537,0.05458549,0.054585863,0.054585908,0.054586284,0.05458613,0.054586165,0.05458626,0.05458621,0.054586302,0.054586336,0.054586343,0.054586414,0.054586448,0.0545864,0.054586414,0.054586384,0.05458639,0.054586425,0.054586403,0.054586414,0.054586433,0.054586433,0.05458644,0.054586418,0.054586396,0.05458639,0.054586366,0.054586425,0.054586396,0.054586418,0.05458643,0.0545864,0.054586392,0.054586414,0.054586418,0.054586392,0.054586392,0.05458641,0.05458639,0.05458639,0.054586384,0.05458639,0.05458641,0.054586418,0.05458644,0.054586396,0.054586437,0.05458641,0.0545864,0.054586504,0.05458652,0.0545865,0.054586492,0.05458652,0.054586634,0.054586474,0.054586496,0.054586504,0.054586582,0.054586615,0.05458656,0.05458655,0.054586526,0.054585867,0.054587305,0.054588813,0.054575484,0.054582454,0.05458871,0.054682937,0.05457349,0.054838896,0.05868256,0.050431352,0.05046908,0.052662693,0.05474748,0.054778263,0.0549796,0.05555641,0.055227045,0.055310164,0.05525747,0.05527426,0.05527758,0.055279683,0.055282082
0_0_6,-0.030297555,-0.05741604,-0.07630965,-0.10153742,-0.11526005,-0.13607378,-0.15536006,-0.17270033,-0.19879936,-0.22456585,-0.24950996,-0.2748103,-0.29592964,-0.31854084,-0.33642802,-0.3522358,-0.3676334,-0.37835968,-0.38708273,-0.3935855,-0.39781705,-0.40096152,-0.4036051,-0.40428188,-0.4060165,-0.40646183,-0.4065366,-0.40681517,-0.40699998,-0.40719765,-0.40705106,-0.4069579,-0.40734774,-0.40706348,-0.40673923,-0.406522,-0.40652812,-0.40648028,-0.40674964,-0.40636253,-0.40642804,-0.406289,-0.4061658,-0.40612072,-0.40585846,-0.40635425,-0.40614438,-0.4060936,-0.40600565,-0.40580013,-0.40574247,-0.40570694,-0.405784,-0.40554228,-0.40538198,-0.40548,-0.4054182,-0.40532598,-0.40532812,-0.40518668,-0.40518302,-0.4053471,-0.405146,-0.40506443,-0.40505946,-0.40499565,-0.40495983,-0.40490955,-0.40482607,-0.4048886,-0.4049206,-0.40486535,-0.40484244,-0.40477288,-0.40477723,-0.4047612,-0.40474874,-0.4046993,-0.40470317,-0.40468746,-0.40468237,-0.40469396,-0.40466234,-0.4046676,-0.40464836,-0.4046385,-0.40464437,-0.40462747,-0.4046224,-0.40461984,-0.40461466,-0.4046118,-0.4046101,-0.40460104,-0.40460554,-0.40459174,-0.40459335,-0.40459222,-0.4045912,-0.40459004,-0.40458962,-0.4045892,-0.4045854,-0.40458512,-0.40458375,-0.40458274,-0.40458164,-0.4045816,-0.40458134,-0.4045811,-0.4045803,-0.40457982,-0.4045802,-0.40457982,-0.4045796,-0.40457973,-0.40457928,-0.40457952,-0.40457937,-0.40457937,-0.40457934,-0.4045792,-0.40457913,-0.40457913,-0.40457913,-0.40457913,-0.40457913,-0.40457913,-0.40457913,-0.40457913,-0.40457913,-0.40457913,-0.40457913,-0.40457913,-0.40457913,-0.40457913,-0.40457913,-0.40457913,-0.40457913,-0.40457913,-0.40457913,-0.40457913,-0.40457913,-0.40457913,-0.40457913,-0.40457913,-0.40457913,-0.40457913,-0.40457913,-0.40457913,-0.40457913,-0.40457913,-0.40457913,-0.40457913,-0.40457913,-0.40457913,-0.40457913,-0.40457913,-0.40457913,-0.40457913,-0.40457913,-0.40457913,-0.40457913,-0.40457913,-0.40457913,-0.40457913,-0.4045791,-0.40457925,-0.40457898,-0.4045791,-0.40457925,-0.4045795,-0.4045795,-0.40457937,-0.4045797,-0.4045794,-0.40457904,-0.40457925,-0.4045782,-0.40457818,-0.4045798,-0.40458077,-0.4046451,-0.40457797,-0.40548983,-0.4098771,-0.3990943,-0.40359774,-0.40567556,-0.4065612,-0.40580282,-0.40588915,-0.40601754,-0.4058449,-0.40591022,-0.40586337,-0.40587187,-0.40586987,-0.40587398,-0.40587342
0_0_7,-0.0063668415,-0.023297919,-0.035947178,-0.05752867,-0.07640746,-0.100961894,-0.12731881,-0.15139608,-0.18368691,-0.21406783,-0.24370173,-0.2739172,-0.30012903,-0.32777572,-0.34935877,-0.36859733,-0.38719392,-0.4005818,-0.41127807,-0.41947234,-0.42483807,-0.42869467,-0.4318962,-0.43311882,-0.43488362,-0.43558273,-0.4357154,-0.436056,-0.43640646,-0.43634164,-0.43609178,-0.43607756,-0.4364346,-0.4359954,-0.4356212,-0.43555498,-0.43547133,-0.4354082,-0.4356204,-0.43522555,-0.43513986,-0.43503672,-0.43474895,-0.43455827,-0.43438104,-0.43454543,-0.43445686,-0.43429446,-0.43395048,-0.43384233,-0.43365407,-0.43361932,-0.43370625,-0.43328807,-0.43318075,-0.433112,-0.4329588,-0.4329828,-0.43283615,-0.43268424,-0.432571,-0.43268546,-0.43230727,-0.43223244,-0.43217808,-0.43215117,-0.43203273,-0.43193302,-0.4317873,-0.43180072,-0.43176967,-0.43164054,-0.431581,-0.43144166,-0.43145028,-0.43136272,-0.4313754,-0.43124443,-0.43127254,-0.43120274,-0.4311924,-0.43117708,-0.43114665,-0.4310895,-0.43102542,-0.43101195,-0.43103555,-0.43097675,-0.43097138,-0.4309751,-0.4309418,-0.4309465,-0.430944,-0.43090954,-0.4309282,-0.43088698,-0.43088973,-0.43089208,-0.4308849,-0.43088302,-0.43088487,-0.43088117,-0.4308713,-0.43086904,-0.43086565,-0.43086395,-0.43086052,-0.43086112,-0.43085977,-0.43085954,-0.43085775,-0.43085632,-0.43085742,-0.43085676,-0.43085605,-0.43085617,-0.43085536,-0.43085578,-0.43085548,-0.4308552,-0.4308551,-0.43085492,-0.43085477,-0.43085486,-0.43085486,-0.43085483,-0.43085483,-0.43085483,-0.43085483,-0.43085483,-0.43085483,-0.43085483,-0.43085483,-0.43085483,-0.43085483,-0.43085483,-0.43085483,-0.43085483,-0.43085483,-0.43085483,-0.43085483,-0.43085483,-0.43085483,-0.43085483,-0.43085483,-0.43085483,-0.43085483,-0.43085483,-0.43085483,-0.43085483,-0.43085483,-0.43085483,-0.43085483,-0.43085483,-0.43085483,-0.43085483,-0.43085483,-0.43085483,-0.43085483,-0.43085483,-0.43085483,-0.43085483,-0.43085483,-0.43085483,-0.43085483,-0.43085483,-0.43085483,-0.43085483,-0.43085474,-0.4308547,-0.4308547,-0.4308548,-0.43085486,-0.43085468,-0.43085504,-0.43085468,-0.4308551,-0.43085387,-0.4308511,-0.4308641,-0.43085915,-0.43085405,-0.43084186,-0.43086556,-0.43174112,-0.4354977,-0.42577,-0.4327994,-0.43445247,-0.4339867,-0.43286756,-0.4328205,-0.4325144,-0.43254623,-0.43256935,-0.43254673,-0.4325447,-0.4325389,-0.4325432,-0.4325406
0_0_8,-0.04546837,-0.030808674,-0.0280783,-0.018388234,-0.019160716,-0.013521105,-0.011002888,-0.00896574,-0.003096947,0.0037249553,0.010042996,0.016297814,0.02080466,0.025879698,0.03010044,0.033637594,0.03728352,0.03942908,0.04137484,0.042622276,0.043407343,0.04412033,0.044763286,0.044534836,0.045287285,0.045240916,0.04521858,0.0452841,0.045206144,0.045550883,0.045585062,0.045466173,0.0456742,0.045695927,0.045597583,0.04535272,0.045443084,0.04543619,0.04561356,0.045445155,0.045621254,0.04552337,0.04562678,0.04574696,0.04554583,0.046090946,0.045878433,0.04596244,0.046169154,0.045981772,0.046081316,0.04606446,0.046090096,0.046149585,0.04602632,0.04623118,0.04629069,0.046137292,0.046281174,0.04622708,0.046330214,0.0464524,0.04653059,0.0464869,0.046531845,0.04646759,0.046530355,0.046554707,0.046576444,0.04665188,0.04672683,0.046772424,0.046796974,0.046832018,0.046830006,0.0468909,0.046861093,0.04691636,0.046894968,0.0469394,0.046942245,0.046973307,0.046957795,0.047019895,0.047053885,0.04705279,0.04703852,0.04707083,0.047068756,0.047061402,0.047085907,0.047077414,0.047077406,0.047097567,0.047086153,0.047106147,0.047105715,0.047101874,0.047107168,0.04710736,0.047104865,0.047107667,0.04711178,0.047113504,0.04711476,0.047115058,0.047116872,0.047116287,0.047117133,0.04711724,0.047117747,0.04711827,0.047117695,0.047117703,0.047117993,0.047118053,0.047118317,0.04711824,0.047118224,0.047118295,0.047118217,0.047118265,0.04711825,0.04711835,0.047118433,0.04711843,0.04711836,0.04711835,0.04711829,0.04711829,0.047118314,0.04711821,0.047118194,0.047118194,0.047118198,0.047118206,0.04711818,0.04711813,0.047118135,0.047118098,0.047118165,0.047118142,0.04711816,0.047118172,0.047118127,0.04711814,0.047118127,0.047118142,0.047118112,0.0471181,0.047118094,0.047118075,0.047118083,0.047118053,0.04711803,0.047118064,0.04711807,0.04711809,0.047118023,0.047118064,0.047118027,0.047118038,0.04711816,0.047118187,0.047118165,0.047118142,0.047118165,0.04711829,0.047118075,0.047118105,0.04711813,0.047118247,0.047118284,0.047118194,0.047118224,0.047118124,0.04711745,0.047118835,0.04712002,0.047107518,0.0471144,0.047120444,0.0472228,0.04710569,0.047557626,0.05191901,0.042517338,0.0439261,0.046220228,0.048201147,0.048040017,0.04822511,0.048725102,0.04841513,0.048498888,0.04844445,0.048460197,0.04846236,0.048465125,0.048466932
0_0_9,0.00667413,0.014697122,0.029527638,0.037791815,0.052726127,0.062174153,0.0749049,0.085775465,0.09703003,0.10615453,0.11528163,0.12476601,0.1335913,0.14273484,0.1495108,0.15572284,0.16150717,0.16603324,0.16942054,0.17220202,0.17403755,0.1752245,0.17616205,0.17692353,0.17709823,0.17746115,0.17754155,0.17764316,0.17787175,0.1775476,0.17740329,0.17749855,0.17748576,0.17726485,0.17717648,0.17735541,0.17723973,0.17721671,0.17716314,0.17712523,0.17693532,0.17697164,0.1767508,0.17656043,0.17665099,0.17626093,0.17640203,0.17625572,0.1759211,0.17603181,0.17586035,0.17585891,0.17587714,0.17563434,0.17569028,0.17548381,0.17536275,0.175505,0.17531493,0.17529142,0.1751515,0.17509997,0.17485994,0.174863,0.17479973,0.17484221,0.17473438,0.17466797,0.17458273,0.17452459,0.17444646,0.17434843,0.17430025,0.1742066,0.1742123,0.17412044,0.17415166,0.17404465,0.17407583,0.17400606,0.17399883,0.17396533,0.17396466,0.17388566,0.17382741,0.17382221,0.17384519,0.17379072,0.17379005,0.17379811,0.17376201,0.17377138,0.17377019,0.17373715,0.17375544,0.17371958,0.17372122,0.1737255,0.1737177,0.17371659,0.17371958,0.17371555,0.17370752,0.17370501,0.17370242,0.17370138,0.17369823,0.17369895,0.17369764,0.17369746,0.17369623,0.17369518,0.17369618,0.17369583,0.17369524,0.17369524,0.17369458,0.17369488,0.17369479,0.1736946,0.17369466,0.17369452,0.17369452,0.17369463,0.17369463,0.1736946,0.1736946,0.1736946,0.1736946,0.1736946,0.1736946,0.1736946,0.1736946,0.1736946,0.1736946,0.1736946,0.1736946,0.1736946,0.1736946,0.17369458,0.17369458,0.17369458,0.17369458,0.17369458,0.17369458,0.17369458,0.17369463,0.17369461,0.17369461,0.17369461,0.17369461,0.17369461,0.17369464,0.17369461,0.17369461,0.17369461,0.17369461,0.17369461,0.17369461,0.17369461,0.17369461,0.17369467,0.17369467,0.17369474,0.17369474,0.17369476,0.1736948,0.17369474,0.17369486,0.17369485,0.17369486,0.17369482,0.17369488,0.17369488,0.17369495,0.1736949,0.17369555,0.17369384,0.17369159,0.17370816,0.17370015,0.17369264,0.17359988,0.17371053,0.17372964,0.17128925,0.17606464,0.17976089,0.17729023,0.17493996,0.17447558,0.17425215,0.17354767,0.17389521,0.17381945,0.17386445,0.1738466,0.173841,0.17384046,0.17383699
0_1_0,-0.19806018,-0.23384643,-0.27526927,-0.3108781,-0.34976244,-0.3785759,-0.40173474,-0.41677484,-0.42521113,-0.4293658,-0.43118337,-0.43221715,-0.43261462,-0.43242174,-0.43229583,-0.43203282,-0.43217143,-0.4323284,-0.43218708,-0.4323507,-0.43212393,-0.43215433,-0.431984,-0.43213886,-0.4321405,-0.43215767,-0.43198276,-0.43189758,-0.43195912,-0.43185574,-0.43212345,-0.43207788,-0.43182978,-0.4318883,-0.43186975,-0.4319441,-0.43198088,-0.43197697,-0.4318336,-0.43187723,-0.43192992,-0.43158594,-0.43172547,-0.43168092,-0.4317412,-0.43157595,-0.43178067,-0.43169641,-0.43147907,-0.4314751,-0.43144938,-0.4314342,-0.43145415,-0.43128517,-0.43141958,-0.4314095,-0.43110067,-0.43130782,-0.43120942,-0.431512,-0.43120852,-0.43122455,-0.43108147,-0.43118533,-0.43109107,-0.43116862,-0.43116117,-0.4311185,-0.43118855,-0.43108737,-0.43109748,-0.43112767,-0.430994,-0.43097496,-0.43106923,-0.43096238,-0.43103287,-0.43102068,-0.43099645,-0.43100026,-0.43096173,-0.43098584,-0.43097445,-0.43096343,-0.43095586,-0.43096864,-0.4309879,-0.43095207,-0.43095988,-0.43097752,-0.43095466,-0.4309509,-0.4309449,-0.4309447,-0.4309539,-0.43095252,-0.43095437,-0.43095344,-0.43094978,-0.43094668,-0.43094945,-0.43094957,-0.4309476,-0.4309488,-0.43094712,-0.4309483,-0.4309481,-0.4309482,-0.43094876,-0.43094864,-0.43094862,-0.4309482,-0.43094796,-0.43094817,-0.4309479,-0.43094814,-0.43094793,-0.430948,-0.43094796,-0.43094805,-0.43094805,-0.43094805,-0.43094805,-0.43094805,-0.43094805,-0.43094805,-0.43094805,-0.43094805,-0.43094805,-0.43094805,-0.43094805,-0.43094805,-0.43094805,-0.43094805,-0.43094805,-0.43094805,-0.43094805,-0.43094805,-0.43094805,-0.43094805,-0.43094805,-0.43094805,-0.43094805,-0.43094805,-0.43094805,-0.43094805,-0.43094805,-0.43094805,-0.43094805,-0.43094805,-0.43094805,-0.43094805,-0.43094805,-0.43094805,-0.43094805,-0.43094805,-0.43094805,-0.43094805,-0.43094805,-0.43094805,-0.43094805,-0.43094805,-0.43094805,-0.43094805,-0.43094805,-0.43094805,-0.43094805,-0.4309481,-0.43094796,-0.430948,-0.430948,-0.430948,-0.43094802,-0.43094802,-0.43094802,-0.43094817,-0.43094823,-0.43094775,-0.43094707,-0.4309478,-0.43095398,-0.43095112,-0.4309601,-0.43095636,-0.4307511,-0.43066826,-0.43328655,-0.43265632,-0.43085456,-0.431392,-0.43142238,-0.43137765,-0.4315691,-0.43137062,-0.43137795,-0.43138683,-0.43138686,-0.4313829,-0.4313863,-0.43138754
0_1_1,-0.11536827,-0.13221706,-0.16842334,-0.21023352,-0.2549239,-0.29543355,-0.3243,-0.34298024,-0.35558498,-0.36220947,-0.36503997,-0.3651419,-0.363982,-0.36692458,-0.36711916,-0.36902738,-0.3676656,-0.36832616,-0.3681059,-0.3684462,-0.3685741,-0.36855417,-0.36844087,-0.36860386,-0.36848116,-0.3683231,-0.36828285,-0.3683788,-0.36848333,-0.36814702,-0.36781922,-0.3679984,-0.367588,-0.36759898,-0.367729,-0.36735666,-0.36735275,-0.36737347,-0.36713403,-0.36727706,-0.36722496,-0.36665425,-0.36677888,-0.36691472,-0.36668384,-0.3665977,-0.36649472,-0.36621857,-0.366225,-0.36621216,-0.36628667,-0.36597043,-0.36572903,-0.36601704,-0.36573815,-0.3657505,-0.3656273,-0.36569288,-0.36571595,-0.3655579,-0.36536708,-0.36532804,-0.36550924,-0.36538658,-0.36530778,-0.36523867,-0.36525637,-0.36529297,-0.36504716,-0.3652183,-0.3651343,-0.36508563,-0.3651356,-0.36514065,-0.36507326,-0.36511627,-0.36507806,-0.36504307,-0.36506954,-0.36505184,-0.36505628,-0.36504444,-0.36505324,-0.36504775,-0.36504564,-0.36503905,-0.3650296,-0.3650469,-0.36503205,-0.36501402,-0.36503765,-0.3650333,-0.36504155,-0.36503962,-0.36503288,-0.3650337,-0.36503175,-0.3650318,-0.36503527,-0.36503828,-0.36503518,-0.36503524,-0.3650377,-0.3650364,-0.3650384,-0.36503735,-0.36503762,-0.36503765,-0.365037,-0.36503714,-0.3650372,-0.3650377,-0.365038,-0.36503762,-0.36503777,-0.36503756,-0.36503807,-0.36503786,-0.365038,-0.3650378,-0.36503777,-0.36503786,-0.36503807,-0.36503795,-0.36503795,-0.36503795,-0.36503795,-0.36503795,-0.36503795,-0.36503795,-0.36503795,-0.36503795,-0.36503795,-0.36503795,-0.36503795,-0.36503795,-0.36503795,-0.36503795,-0.36503795,-0.36503795,-0.36503795,-0.36503795,-0.36503795,-0.36503795,-0.36503795,-0.36503795,-0.36503795,-0.36503795,-0.36503795,-0.36503795,-0.36503795,-0.36503795,-0.36503795,-0.36503795,-0.36503795,-0.36503795,-0.36503795,-0.36503795,-0.36503795,-0.3650379,-0.3650379,-0.3650379,-0.3650379,-0.3650379,-0.3650379,-0.3650379,-0.3650379,-0.36503798,-0.36503795,-0.36503804,-0.36503786,-0.36503795,-0.36503783,-0.36503795,-0.36503777,-0.36503792,-0.36503798,-0.36503798,-0.36503664,-0.365039,-0.36503738,-0.36503786,-0.36503926,-0.36503598,-0.364157,-0.36481836,-0.3684662,-0.3673052,-0.36565602,-0.36490032,-0.36501804,-0.3648758,-0.36494493,-0.36489823,-0.36486635,-0.36486438,-0.36487305,-0.36487648,-0.36487234,-0.36487317
0_1_2,-0.11175264,-0.08499405,-0.05839468,-0.040378924,-0.02149353,-0.008635167,0.0032889247,0.011441984,0.015093783,0.016605863,0.017276585,0.018603673,0.01992904,0.017304964,0.016940624,0.014895191,0.016317006,0.01592125,0.0159106,0.015834466,0.015359276,0.015426129,0.015270619,0.015352165,0.015476186,0.015657922,0.015424529,0.015195648,0.01518692,0.015359414,0.016101968,0.015852472,0.015871437,0.015950687,0.015792811,0.016276771,0.01633787,0.016311545,0.016324492,0.016249914,0.016380744,0.016410172,0.016500896,0.016294573,0.01661683,0.016444607,0.016864473,0.017006213,0.016659768,0.016665341,0.016548844,0.016836599,0.017105311,0.016555598,0.017042063,0.017014226,0.016653419,0.016909575,0.01673228,0.017358672,0.017073205,0.017136192,0.016732955,0.01701622,0.0169471,0.017136449,0.017107066,0.017003734,0.01735728,0.017028973,0.017128076,0.017223172,0.016964093,0.016929204,0.017143948,0.016934067,0.017082186,0.017097812,0.01703335,0.017057084,0.016992284,0.017041568,0.017014932,0.017003112,0.01699316,0.017019732,0.017059227,0.016985454,0.017012466,0.017058022,0.016998785,0.01699711,0.01697944,0.01698113,0.01700235,0.016999468,0.01700421,0.017002698,0.01699342,0.016985504,0.016992845,0.016992984,0.016987318,0.016990455,0.016985685,0.016988399,0.016987877,0.01698811,0.016989568,0.016989207,0.016989177,0.016988086,0.016987752,0.016988521,0.016987825,0.016988477,0.016987544,0.0169878,0.01698768,0.01698771,0.016987583,0.016987495,0.01698747,0.016987415,0.016987402,0.016987476,0.016987402,0.016987396,0.016987395,0.016987344,0.016987333,0.016987357,0.016987389,0.016987389,0.016987361,0.016987333,0.016987363,0.016987378,0.016987408,0.016987422,0.016987406,0.016987404,0.01698737,0.016987374,0.016987363,0.016987357,0.016987298,0.016987296,0.016987318,0.01698731,0.016987355,0.01698736,0.016987354,0.01698737,0.016987357,0.016987342,0.016987374,0.016987406,0.016987408,0.01698738,0.016987331,0.016987279,0.016987333,0.016987305,0.016987294,0.016987303,0.016987339,0.016987337,0.016987383,0.016987415,0.016987333,0.016987309,0.016987413,0.016987298,0.016987417,0.016987484,0.016987655,0.016986882,0.016987115,0.01698602,0.0169972,0.01699207,0.017005002,0.01700263,0.017568037,0.01720018,0.013693901,0.01520199,0.015167493,0.016762579,0.016677191,0.016771052,0.016898002,0.016742676,0.016781574,0.016792478,0.016784055,0.016776612,0.016784158,0.016784457
0_1_3,-0.031095747,-0.068111256,-0.11661445,-0.16589648,-0.22090305,-0.26408353,-0.2996788,-0.32354826,-0.33742636,-0.34439737,-0.34748024,-0.34917957,-0.34978983,-0.34947833,-0.3492593,-0.34880793,-0.34903917,-0.34929326,-0.3490528,-0.3493258,-0.34893322,-0.34898514,-0.34869438,-0.34895635,-0.3489607,-0.3489927,-0.34869212,-0.348542,-0.34864318,-0.348472,-0.3489382,-0.34885523,-0.34843802,-0.34853664,-0.34850135,-0.34863654,-0.34869906,-0.3486902,-0.3484483,-0.3485196,-0.34860986,-0.34803098,-0.34826705,-0.34818646,-0.34829494,-0.34801206,-0.34836572,-0.3482261,-0.34785077,-0.34784365,-0.34779692,-0.34777743,-0.34781656,-0.34751818,-0.34775555,-0.34773752,-0.34720746,-0.34756228,-0.34739175,-0.3479167,-0.34739703,-0.34742537,-0.34717387,-0.34735563,-0.3471947,-0.34733012,-0.34731656,-0.34724173,-0.34736872,-0.34718934,-0.34720898,-0.34726223,-0.3470295,-0.3469964,-0.34716132,-0.34697542,-0.34709832,-0.34707823,-0.34703547,-0.3470427,-0.3469759,-0.3470179,-0.3469979,-0.3469789,-0.34696567,-0.34698805,-0.34702155,-0.34695855,-0.34697238,-0.34700334,-0.34696332,-0.34695673,-0.3469461,-0.34694585,-0.34696215,-0.34695998,-0.34696302,-0.3469614,-0.34695488,-0.34694943,-0.34695438,-0.34695452,-0.346951,-0.34695306,-0.3469499,-0.34695184,-0.34695148,-0.34695172,-0.34695253,-0.34695226,-0.34695226,-0.34695166,-0.3469516,-0.34695214,-0.34695166,-0.3469522,-0.3469516,-0.3469517,-0.34695157,-0.34695143,-0.34695145,-0.34695137,-0.34695137,-0.34695137,-0.34695137,-0.34695137,-0.34695137,-0.34695137,-0.34695137,-0.34695137,-0.34695137,-0.34695137,-0.34695137,-0.34695137,-0.34695137,-0.34695137,-0.34695137,-0.34695137,-0.34695137,-0.34695137,-0.34695137,-0.34695137,-0.34695137,-0.34695137,-0.34695137,-0.34695137,-0.34695137,-0.34695137,-0.34695137,-0.34695137,-0.34695137,-0.34695137,-0.34695137,-0.34695137,-0.34695137,-0.34695137,-0.34695137,-0.34695137,-0.34695137,-0.34695143,-0.34695143,-0.34695143,-0.34695143,-0.34695143,-0.34695143,-0.34695143,-0.34695143,-0.34695148,-0.34695143,-0.34695148,-0.34695148,-0.34695157,-0.34695163,-0.3469516,-0.34695166,-0.3469519,-0.346952,-0.34695113,-0.34695,-0.3469513,-0.346962,-0.34695685,-0.34697267,-0.3469653,-0.34662974,-0.34645656,-0.34928936,-0.34785432,-0.3456939,-0.34626895,-0.34629428,-0.34624818,-0.3464525,-0.3462395,-0.34624845,-0.34625807,-0.3462579,-0.34625354,-0.34625742,-0.34625873
0_1_4,0.022412024,0.039747898,0.08697026,0.13468434,0.19138153,0.228368,0.262473,0.28485087,0.29480466,0.29900852,0.30065504,0.3029615,0.30497268,0.30179563,0.30135298,0.29903966,0.30056515,0.30028325,0.30019528,0.300218,0.29965,0.2997277,0.29948905,0.2996506,0.2997633,0.2999367,0.29962516,0.29936916,0.29939592,0.29949042,0.30031133,0.300061,0.29993537,0.30004013,0.29988766,0.30036488,0.3004402,0.30041274,0.300342,0.30030027,0.3004481,0.30027682,0.3004392,0.3002296,0.30055252,0.30030346,0.30079606,0.300874,0.3004402,0.300443,0.30032554,0.3005746,0.30082595,0.30023926,0.30074927,0.3007181,0.3002208,0.3005675,0.30035388,0.30108428,0.30065733,0.3007229,0.30028307,0.3005941,0.300479,0.30069143,0.30066103,0.30054507,0.30089864,0.30054975,0.30064344,0.30074504,0.30043918,0.30039734,0.3006412,0.30039433,0.30056593,0.30057275,0.30050194,0.3005253,0.3004461,0.30050343,0.30047336,0.30045658,0.30044344,0.30047432,0.30052018,0.30043435,0.30046266,0.30051294,0.30044755,0.30044386,0.30042484,0.30042627,0.30045033,0.30044717,0.30045235,0.30045053,0.30044022,0.30043155,0.3004396,0.30043975,0.30043364,0.3004371,0.30043188,0.30043486,0.3004344,0.3004346,0.30043617,0.3004359,0.300436,0.30043483,0.30043438,0.30043522,0.3004346,0.3004353,0.30043432,0.30043462,0.30043456,0.30043462,0.30043447,0.30043456,0.30043438,0.30043462,0.30043462,0.30043465,0.30043465,0.30043465,0.30043465,0.30043465,0.30043465,0.30043465,0.30043465,0.30043465,0.30043465,0.30043465,0.30043465,0.30043465,0.30043465,0.30043465,0.30043465,0.30043465,0.30043465,0.30043465,0.30043465,0.30043465,0.30043465,0.30043465,0.30043465,0.30043465,0.30043465,0.30043465,0.30043465,0.30043465,0.30043465,0.30043465,0.30043465,0.30043465,0.30043465,0.30043468,0.30043468,0.30043468,0.30043468,0.30043468,0.30043468,0.30043468,0.30043468,0.3004347,0.3004347,0.30043477,0.30043468,0.3004347,0.3004347,0.30043462,0.3004346,0.3004347,0.30043498,0.3004341,0.30043387,0.30043337,0.30044675,0.30044046,0.30045706,0.30045202,0.30083215,0.30042127,0.29837015,0.29977334,0.2988988,0.3001778,0.30011654,0.30017757,0.30034623,0.3001507,0.3001852,0.30019715,0.30019033,0.30018285,0.30019012,0.3001908
0_1_5,-0.19958638,-0.23453254,-0.27477655,-0.30923218,-0.34671843,-0.37460047,-0.39676926,-0.41111627,-0.41928324,-0.42333722,-0.42511073,-0.4260136,-0.42627305,-0.42634347,-0.42625156,-0.4261833,-0.42618895,-0.42638168,-0.42624077,-0.42641133,-0.42622596,-0.42625064,-0.4260935,-0.4262417,-0.42623252,-0.42623404,-0.42607886,-0.42601317,-0.4260757,-0.42595732,-0.42616183,-0.42613766,-0.42588714,-0.42593896,-0.42593393,-0.42596686,-0.4259985,-0.4259969,-0.42585167,-0.42590195,-0.4259437,-0.42559525,-0.42572778,-0.42570055,-0.42573363,-0.42558214,-0.42575228,-0.42565542,-0.42546603,-0.42546156,-0.4254456,-0.4254058,-0.42540303,-0.42527947,-0.42537352,-0.4253659,-0.42508525,-0.4252723,-0.42518806,-0.4254401,-0.42515814,-0.4251691,-0.42505878,-0.42513946,-0.4250502,-0.42511246,-0.4251075,-0.42507306,-0.425114,-0.42503944,-0.42504144,-0.42506397,-0.4249506,-0.4249345,-0.42501175,-0.4249216,-0.42498043,-0.4249669,-0.42494783,-0.42494977,-0.42491636,-0.42493653,-0.4249272,-0.42491692,-0.42491004,-0.42492074,-0.42493677,-0.42490655,-0.42491218,-0.4249261,-0.424908,-0.42490423,-0.42489964,-0.42489934,-0.42490688,-0.4249058,-0.42490715,-0.42490634,-0.4249033,-0.42490086,-0.42490298,-0.424903,-0.42490155,-0.4249025,-0.42490116,-0.424902,-0.42490196,-0.424902,-0.42490247,-0.42490235,-0.42490232,-0.42490196,-0.42490184,-0.42490214,-0.42490187,-0.4249021,-0.42490196,-0.42490202,-0.42490202,-0.42490205,-0.42490205,-0.42490205,-0.42490205,-0.42490205,-0.42490205,-0.42490205,-0.42490205,-0.42490205,-0.42490205,-0.42490205,-0.42490205,-0.42490205,-0.42490205,-0.42490205,-0.42490205,-0.42490205,-0.42490205,-0.42490205,-0.42490205,-0.42490205,-0.42490205,-0.42490205,-0.42490205,-0.42490205,-0.42490205,-0.42490205,-0.42490205,-0.42490205,-0.42490205,-0.42490205,-0.42490205,-0.42490205,-0.42490205,-0.42490205,-0.42490205,-0.42490205,-0.42490205,-0.42490205,-0.42490205,-0.42490205,-0.42490205,-0.42490205,-0.42490205,-0.42490205,-0.42490205,-0.42490205,-0.42490205,-0.42490214,-0.424902,-0.42490202,-0.42490202,-0.42490202,-0.4249021,-0.42490208,-0.42490208,-0.4249023,-0.42490238,-0.4249019,-0.42490113,-0.42490196,-0.4249072,-0.42490467,-0.424913,-0.42490968,-0.424655,-0.4246018,-0.42755604,-0.42691174,-0.42507425,-0.42544803,-0.42549184,-0.42543226,-0.42561677,-0.42542908,-0.42543164,-0.42543957,-0.4254407,-0.4254375,-0.42543998,-0.42544135
0_1_6,0.08822735,0.12331715,0.16825746,0.21248208,0.25824004,0.2971682,0.3255654,0.343991,0.35601592,0.36230126,0.36503044,0.36541423,0.3646342,0.36689273,0.36700934,0.3684396,0.36740017,0.36797434,0.36775568,0.3680762,0.36810642,0.36810005,0.36795694,0.3681349,0.36803773,0.36791804,0.3678307,0.36787993,0.3679826,0.36768258,0.36750638,0.36763442,0.36722988,0.3672569,0.36735433,0.36708128,0.36708966,0.36710474,0.3668687,0.3669965,0.36697206,0.36640835,0.36655247,0.36664712,0.366482,0.36636096,0.36634347,0.36609644,0.36603284,0.3660214,0.3660732,0.365816,0.3656296,0.36580646,0.36562583,0.36563239,0.36543646,0.36555472,0.3655422,0.36551192,0.36526334,0.36523727,0.3653368,0.36527148,0.3651784,0.36514768,0.36515942,0.3651752,0.36500043,0.3651054,0.36504138,0.36501217,0.36500975,0.36500794,0.36498392,0.3649845,0.36497626,0.36494425,0.3649577,0.36494473,0.364936,0.3649344,0.36493775,0.36492983,0.3649257,0.3649245,0.36492303,0.36492544,0.364916,0.36490715,0.36491886,0.36491415,0.36491886,0.3649173,0.3649148,0.3649151,0.3649141,0.3649139,0.36491558,0.36491716,0.36491558,0.3649156,0.3649168,0.36491612,0.36491713,0.36491665,0.36491686,0.36491686,0.36491644,0.36491665,0.3649167,0.36491704,0.3649172,0.364917,0.36491704,0.36491704,0.36491725,0.3649171,0.36491722,0.36491713,0.36491716,0.36491734,0.3649174,0.3649174,0.3649174,0.3649174,0.3649174,0.3649174,0.3649174,0.3649174,0.3649174,0.3649174,0.3649174,0.3649174,0.3649174,0.3649174,0.3649174,0.3649174,0.3649174,0.3649174,0.3649174,0.3649174,0.3649174,0.3649174,0.3649174,0.3649174,0.3649174,0.3649174,0.3649174,0.3649174,0.3649174,0.3649174,0.3649174,0.3649174,0.3649174,0.3649174,0.3649174,0.3649174,0.3649174,0.36491734,0.36491734,0.36491734,0.36491734,0.36491734,0.36491734,0.36491734,0.36491734,0.36491734,0.3649173,0.36491734,0.3649172,0.36491716,0.36491707,0.36491707,0.3649169,0.36491707,0.36491725,0.36491722,0.36491588,0.36491805,0.36491886,0.36491826,0.36492226,0.36491823,0.36414424,0.36462125,0.36846027,0.36741054,0.36557198,0.36500022,0.36510947,0.36497563,0.36507878,0.36499363,0.36496744,0.3649678,0.3649754,0.36497754,0.3649747,0.36497584
0_1_7,-0.09572964,-0.067367844,-0.041445386,-0.021443998,-0.0053319377,0.00886701,0.016277878,0.020326642,0.024278276,0.026628865,0.027639054,0.02690714,0.025560971,0.028430825,0.028715763,0.030704455,0.029327197,0.029831542,0.029736444,0.029930687,0.030232463,0.030189745,0.030217415,0.030250406,0.030132767,0.029968914,0.030070068,0.030230585,0.03028393,0.03004465,0.029518124,0.029726626,0.029530942,0.029496035,0.029635863,0.029219616,0.029186886,0.029210934,0.02909579,0.029198831,0.029107856,0.028833741,0.028843185,0.0290105,0.028740138,0.028789846,0.02852707,0.02832892,0.02851021,0.028501512,0.02859488,0.028302561,0.028054174,0.028468717,0.028091546,0.028111791,0.028242059,0.0281393,0.02824125,0.027845317,0.027906122,0.027855642,0.028146464,0.027944174,0.027944092,0.027814697,0.027837891,0.027907979,0.027613332,0.027861107,0.027771642,0.0277002,0.027857035,0.027877482,0.02773573,0.027864063,0.027769921,0.027745917,0.027791327,0.027770935,0.027806511,0.0277757,0.027793452,0.027797116,0.027801272,0.0277845,0.027759723,0.027805813,0.02778505,0.027753215,0.027794665,0.027793547,0.02780643,0.027804647,0.02779057,0.027792482,0.027789144,0.027789975,0.027796365,0.02780188,0.027796669,0.027796594,0.027800653,0.027798416,0.027801791,0.027799923,0.027800296,0.027800169,0.027799096,0.027799383,0.027799422,0.027800225,0.027800502,0.027799955,0.027800439,0.027800016,0.027800713,0.027800519,0.027800614,0.027800549,0.027800689,0.027800752,0.027800787,0.027800838,0.027800843,0.027800765,0.027800834,0.02780083,0.02780084,0.027800871,0.02780088,0.027800852,0.02780087,0.027800864,0.027800862,0.027800893,0.027800912,0.027800908,0.027800918,0.02780093,0.027800933,0.027800934,0.02780094,0.027800912,0.027800912,0.027800927,0.027800929,0.027800953,0.027800946,0.027800957,0.027800938,0.027800972,0.027800953,0.027800974,0.027800966,0.02780096,0.027800972,0.027801,0.027800987,0.027800985,0.027800966,0.02780102,0.027800998,0.02780097,0.027800947,0.027800955,0.027800985,0.027801026,0.027800996,0.027800974,0.02780102,0.02780106,0.027800927,0.027800985,0.027800854,0.027800903,0.027800834,0.027801253,0.027800506,0.02780213,0.027795637,0.027798543,0.027792504,0.027792806,0.027105236,0.02768655,0.031192588,0.030033384,0.029593946,0.028444268,0.028562818,0.028434474,0.028394116,0.02846488,0.02842467,0.028417036,0.028426664,0.02843297,0.028426226,0.028426552
0_1_8,-0.04307206,-0.07911753,-0.121072486,-0.15886651,-0.19911577,-0.23094799,-0.25555748,-0.27156532,-0.28117573,-0.28606093,-0.28821874,-0.28909838,-0.28916818,-0.28967598,-0.28961185,-0.2898084,-0.28963283,-0.28991386,-0.28974316,-0.28995946,-0.28978816,-0.28981078,-0.28963688,-0.28980803,-0.28978363,-0.28976527,-0.28960282,-0.28954825,-0.28962523,-0.28946263,-0.2896286,-0.28962666,-0.28932026,-0.28937438,-0.2893859,-0.2893719,-0.2894036,-0.28940484,-0.2892271,-0.28929627,-0.2893317,-0.2889056,-0.28905565,-0.28904542,-0.28904927,-0.28888485,-0.28904375,-0.2889101,-0.28871945,-0.28871322,-0.28870663,-0.2886253,-0.28859115,-0.28850356,-0.28856263,-0.28855658,-0.28825665,-0.28845423,-0.28837192,-0.28860602,-0.2882962,-0.28830212,-0.28821418,-0.28827992,-0.28817946,-0.28823346,-0.28823066,-0.2882006,-0.28820997,-0.28815693,-0.2881481,-0.2881645,-0.28805652,-0.2880408,-0.28811005,-0.2880246,-0.28807905,-0.28806067,-0.28804478,-0.28804442,-0.28801116,-0.28803003,-0.2880217,-0.28801072,-0.28800347,-0.28801346,-0.28802848,-0.28800002,-0.2880038,-0.28801554,-0.28800038,-0.28799602,-0.28799236,-0.28799176,-0.28799853,-0.2879976,-0.28799874,-0.28799805,-0.28799558,-0.2879935,-0.28799528,-0.28799537,-0.28799412,-0.2879949,-0.2879938,-0.28799444,-0.28799424,-0.28799447,-0.28799477,-0.2879947,-0.2879948,-0.28799465,-0.28799474,-0.28799504,-0.28799483,-0.28799483,-0.28799462,-0.28799462,-0.28799462,-0.28799462,-0.28799462,-0.28799462,-0.28799462,-0.28799462,-0.28799462,-0.28799462,-0.28799462,-0.28799462,-0.28799462,-0.28799462,-0.28799462,-0.28799462,-0.28799462,-0.28799462,-0.28799462,-0.28799462,-0.28799462,-0.28799462,-0.28799462,-0.28799462,-0.28799462,-0.28799462,-0.28799462,-0.28799462,-0.28799462,-0.28799462,-0.28799462,-0.28799462,-0.28799462,-0.28799462,-0.28799462,-0.28799462,-0.28799462,-0.28799462,-0.28799462,-0.28799462,-0.28799462,-0.28799462,-0.28799462,-0.28799462,-0.28799462,-0.28799462,-0.28799462,-0.28799462,-0.28799462,-0.28799462,-0.28799462,-0.2879947,-0.28799456,-0.28799468,-0.2879946,-0.28799465,-0.28799462,-0.28799456,-0.28799438,-0.2879946,-0.2879947,-0.28799427,-0.28799322,-0.28799447,-0.2879996,-0.28799716,-0.28800553,-0.28800163,-0.28762975,-0.28767222,-0.29110396,-0.2903252,-0.28860253,-0.288881,-0.2889447,-0.28886685,-0.28904504,-0.2888684,-0.28886485,-0.28887156,-0.28887415,-0.28887188,-0.2888734,-0.2888747
0_1_9,0.12449643,0.158545,0.1977063,0.2307963,0.26726928,0.29363415,0.3151739,0.32915252,0.3367064,0.34035355,0.34194267,0.3430297,0.34359744,0.34301665,0.34285903,0.34233508,0.34266075,0.34273902,0.34262007,0.34274703,0.34249353,0.34252796,0.34236476,0.3425053,0.34252307,0.34256166,0.34238413,0.34228265,0.3423335,0.34226957,0.34259266,0.34252155,0.3423155,0.34237534,0.342339,0.34246582,0.34250495,0.3424984,0.3423795,0.34240663,0.3424689,0.34218302,0.34231293,0.34224808,0.342342,0.3421798,0.34240848,0.34235644,0.3421272,0.34212482,0.34208792,0.34211388,0.3421668,0.3419509,0.34212935,0.34211728,0.34180865,0.342018,0.3419114,0.34225088,0.34195665,0.34197873,0.34180385,0.3419296,0.34184074,0.3419316,0.34192133,0.34187138,0.3419781,0.34184864,0.3418704,0.34190872,0.34176108,0.34174037,0.3418489,0.34173048,0.3418098,0.34180152,0.3417724,0.3417788,0.34173754,0.34176454,0.34175128,0.34174046,0.34173277,0.34174716,0.34176868,0.3417283,0.34173852,0.3417595,0.34173238,0.34172884,0.34172133,0.3417214,0.3417319,0.34173042,0.3417327,0.34173173,0.3417274,0.3417238,0.34172714,0.34172717,0.34172466,0.3417261,0.34172386,0.34172508,0.34172475,0.34172478,0.34172535,0.34172526,0.34172523,0.34172484,0.3417246,0.3417248,0.34172446,0.34172472,0.3417244,0.34172454,0.34172446,0.3417245,0.34172454,0.34172454,0.34172454,0.34172454,0.34172454,0.34172454,0.34172454,0.34172454,0.34172454,0.34172454,0.34172454,0.34172454,0.34172454,0.34172454,0.34172454,0.34172454,0.34172454,0.34172454,0.34172454,0.34172454,0.34172454,0.34172454,0.34172454,0.34172454,0.34172454,0.34172454,0.34172454,0.34172454,0.34172454,0.34172454,0.34172454,0.34172454,0.34172454,0.34172454,0.34172454,0.34172454,0.34172454,0.34172454,0.34172454,0.34172454,0.34172454,0.34172454,0.34172454,0.34172454,0.34172454,0.34172454,0.34172454,0.34172451,0.3417245,0.3417245,0.3417245,0.3417245,0.34172451,0.34172457,0.34172454,0.3417246,0.34172472,0.3417243,0.34172362,0.34172416,0.34173083,0.34172776,0.3417372,0.34173372,0.3416375,0.34154662,0.34343055,0.34320754,0.34172472,0.34249994,0.34251004,0.3424925,0.3426852,0.34248048,0.3424953,0.3425054,0.3425036,0.3424985,0.34250316,0.34250432
0_2_0,-0.10264741,-0.11645779,-0.12670176,-0.13594857,-0.14781833,-0.15834206,-0.16329755,-0.16699807,-0.16886942,-0.16817966,-0.16796467,-0.16696295,-0.16608238,-0.16440989,-0.1630146,-0.16164279,-0.16003552,-0.15899548,-0.1570608,-0.15580007,-0.15404773,-0.15244089,-0.15085855,-0.14913622,-0.14766164,-0.14551155,-0.14379299,-0.14185354,-0.14013226,-0.13807824,-0.13618784,-0.13406518,-0.13204195,-0.12972867,-0.1276229,-0.12531976,-0.12354246,-0.12117292,-0.11867019,-0.11627902,-0.11403985,-0.11176535,-0.10912055,-0.10710226,-0.10439207,-0.102153905,-0.09963803,-0.09748841,-0.095142156,-0.09270117,-0.090152666,-0.087698504,-0.08545954,-0.082815096,-0.08088518,-0.07853713,-0.07619616,-0.073925756,-0.071758695,-0.069946125,-0.06765505,-0.06565136,-0.063861676,-0.061979234,-0.060231123,-0.058342896,-0.05665809,-0.055100005,-0.053662535,-0.052062538,-0.050705943,-0.04931099,-0.047966998,-0.04678461,-0.04555365,-0.044408914,-0.04331623,-0.042326633,-0.0414227,-0.04067099,-0.03989576,-0.039146375,-0.03852848,-0.037929367,-0.037270606,-0.03678297,-0.036338158,-0.03586295,-0.035477698,-0.035148047,-0.034870125,-0.034575447,-0.034340534,-0.034129787,-0.033957243,-0.033803094,-0.033656724,-0.033531506,-0.03340598,-0.033318155,-0.033242892,-0.03316391,-0.03311119,-0.033063766,-0.03302071,-0.032982565,-0.032958034,-0.032933004,-0.032913845,-0.03289762,-0.032882135,-0.03287044,-0.032861393,-0.03285461,-0.03284946,-0.032844607,-0.032840867,-0.032838136,-0.03283596,-0.032834407,-0.032833237,-0.032832332,-0.032831796,-0.032831322,-0.03283101,-0.03283083,-0.032830667,-0.032830536,-0.032830525,-0.032830525,-0.03283048,-0.032830335,-0.032830317,-0.032830313,-0.03283031,-0.032830313,-0.032830294,-0.032830168,-0.03283013,-0.032830074,-0.03282998,-0.0328299,-0.03282977,-0.032829717,-0.032829717,-0.03282974,-0.0328296,-0.032829598,-0.032829586,-0.032829583,-0.032829568,-0.03282958,-0.032829564,-0.03282958,-0.032829624,-0.03282949,-0.032829545,-0.032829463,-0.0328295,-0.03282938,-0.03282945,-0.03282946,-0.032829363,-0.032829314,-0.03282932,-0.03282933,-0.032829255,-0.032829013,-0.03282861,-0.032829136,-0.03282936,-0.032829307,-0.032829113,-0.032829985,-0.03282791,-0.032828663,-0.032829706,-0.032821815,-0.032810517,-0.032777976,-0.03286894,-0.03278295,-0.03266837,-0.033713713,-0.03270137,-0.037610095,-0.06492302,-0.03793899,-0.05229994,-0.050385103,-0.04248979,-0.03752104,-0.03356755,-0.033327475,-0.032762308,-0.03277716,-0.032645516,-0.032615554,-0.032595016,-0.03259148
0_2_1,-0.056847483,-0.06664776,-0.082201846,-0.09919013,-0.119105265,-0.13807078,-0.1509547,-0.16005582,-0.16737337,-0.1777836,-0.18519787,-0.19296071,-0.19507405,-0.20483404,-0.21111949,-0.21755564,-0.22585504,-0.23208019,-0.2392122,-0.24492858,-0.25124303,-0.25748327,-0.26423538,-0.2704052,-0.27727398,-0.28349245,-0.2897696,-0.29619184,-0.30283377,-0.30927613,-0.3157474,-0.32170397,-0.3276771,-0.33424616,-0.34026045,-0.34612778,-0.35231477,-0.35829523,-0.36402962,-0.3697747,-0.37533367,-0.38035572,-0.3859192,-0.39148912,-0.39651325,-0.40142065,-0.4061275,-0.41055018,-0.41540226,-0.41981858,-0.4240876,-0.42835,-0.43219182,-0.43587205,-0.4396387,-0.44314328,-0.44621778,-0.44960448,-0.45246783,-0.4552705,-0.4577875,-0.46057543,-0.46296108,-0.46514925,-0.46743035,-0.46944088,-0.4714363,-0.47321266,-0.47482386,-0.47639927,-0.47787398,-0.47930366,-0.48052323,-0.4817585,-0.48285648,-0.48389605,-0.48481026,-0.48563626,-0.48644614,-0.48714274,-0.48779348,-0.48841923,-0.48898187,-0.48948807,-0.4899922,-0.49038965,-0.4907866,-0.49115092,-0.49145085,-0.49172994,-0.4919547,-0.49219403,-0.49238905,-0.49256545,-0.49271467,-0.4928501,-0.49297607,-0.49308494,-0.49319643,-0.49327695,-0.493347,-0.49341926,-0.4934695,-0.4935159,-0.49355826,-0.49359715,-0.49362215,-0.49364883,-0.49366954,-0.49368727,-0.49370515,-0.49371865,-0.49372956,-0.49373826,-0.49374518,-0.49375185,-0.493757,-0.493761,-0.49376434,-0.49376646,-0.49376822,-0.4937695,-0.4937701,-0.4937709,-0.49377197,-0.4937728,-0.4937735,-0.4937737,-0.4937738,-0.4937741,-0.49377412,-0.49377412,-0.49377415,-0.49377415,-0.49377415,-0.49377435,-0.49377435,-0.49377435,-0.4937746,-0.49377468,-0.49377468,-0.4937747,-0.4937747,-0.4937747,-0.49377474,-0.49377477,-0.4937748,-0.4937748,-0.4937748,-0.49377486,-0.4937749,-0.49377498,-0.49377498,-0.49377504,-0.49377504,-0.49377504,-0.49377504,-0.49377504,-0.4937752,-0.4937752,-0.4937752,-0.4937755,-0.4937755,-0.4937755,-0.4937755,-0.4937755,-0.4937755,-0.49377537,-0.49377444,-0.49377564,-0.4937758,-0.4937755,-0.4937751,-0.49377638,-0.4937725,-0.49377528,-0.4937756,-0.49377796,-0.4937801,-0.49377245,-0.49377912,-0.49377567,-0.49374732,-0.49351934,-0.4952047,-0.50151885,-0.5350625,-0.5118787,-0.49655852,-0.49254793,-0.49325413,-0.4936607,-0.49419323,-0.49512827,-0.49548158,-0.49578917,-0.4958573,-0.49591655,-0.4959468,-0.4959504
0_2_2,0.022221992,0.033428974,0.03987199,0.04416349,0.048928287,0.05250573,0.052629814,0.052472178,0.050651763,0.043547533,0.038251113,0.031248923,0.028191855,0.017657952,0.009984096,0.0020477364,-0.008139906,-0.015754223,-0.025675068,-0.033305835,-0.042339467,-0.05112957,-0.060440786,-0.06936772,-0.078668565,-0.08831127,-0.09736547,-0.10690347,-0.116321504,-0.12602599,-0.1355075,-0.14479809,-0.15396415,-0.16416143,-0.17345566,-0.18287696,-0.19185242,-0.20146883,-0.21103482,-0.22044916,-0.22942406,-0.23789507,-0.24746671,-0.2561087,-0.2652042,-0.27348652,-0.28195614,-0.28960687,-0.29797712,-0.30603293,-0.31410176,-0.3220118,-0.3291752,-0.3367662,-0.34339923,-0.35037667,-0.35691383,-0.36365563,-0.3697157,-0.37519357,-0.3810833,-0.38682246,-0.39185077,-0.39680925,-0.4016641,-0.406449,-0.4109231,-0.41499135,-0.41871703,-0.42264372,-0.42611325,-0.42959377,-0.43278915,-0.43576396,-0.4386713,-0.44139358,-0.44391316,-0.44619393,-0.4483325,-0.45013556,-0.4519261,-0.45365384,-0.455126,-0.45651382,-0.45798677,-0.4591015,-0.4601534,-0.46121678,-0.46208346,-0.46284792,-0.46348175,-0.46415484,-0.4646958,-0.4651825,-0.46558598,-0.4659484,-0.46629003,-0.46658346,-0.46687993,-0.46708998,-0.46727112,-0.46745977,-0.46758774,-0.46770412,-0.46781,-0.46790513,-0.46796623,-0.4680298,-0.46807867,-0.46812043,-0.46816123,-0.4681921,-0.46821636,-0.46823508,-0.46824956,-0.4682634,-0.46827394,-0.46828204,-0.46828866,-0.46829298,-0.46829632,-0.46829876,-0.46829996,-0.4683014,-0.4683027,-0.46830395,-0.46830502,-0.46830606,-0.4683063,-0.46830666,-0.46830684,-0.46830744,-0.46830767,-0.46830767,-0.4683077,-0.4683077,-0.4683077,-0.46830776,-0.4683078,-0.46830797,-0.4683081,-0.46830818,-0.46830833,-0.46830833,-0.46830842,-0.46830842,-0.46830857,-0.46830857,-0.46830857,-0.46830857,-0.4683088,-0.4683088,-0.4683088,-0.4683088,-0.4683088,-0.4683088,-0.4683088,-0.46830893,-0.46830893,-0.46830896,-0.46830896,-0.46830913,-0.46830916,-0.46830916,-0.46830916,-0.46830916,-0.46830916,-0.46830916,-0.46830916,-0.46830946,-0.46830937,-0.46830922,-0.46830916,-0.46830887,-0.46830812,-0.46830982,-0.4683086,-0.4683225,-0.46834114,-0.46838087,-0.4682545,-0.46837687,-0.46851578,-0.46675596,-0.46993184,-0.47119808,-0.49218473,-0.48358828,-0.44911277,-0.4466726,-0.45525604,-0.46062022,-0.46510825,-0.46632227,-0.46725342,-0.4675597,-0.4677618,-0.4678534,-0.46790537,-0.46791267
0_2_3,0.025103379,0.010029201,-0.0038809841,-0.017938338,-0.03581711,-0.052036896,-0.06046673,-0.06665456,-0.06995957,-0.06937342,-0.06934217,-0.067957066,-0.06647019,-0.06374942,-0.061403856,-0.059075505,-0.056287054,-0.054433227,-0.051027086,-0.048767626,-0.045648787,-0.042771522,-0.039919153,-0.036840282,-0.03416064,-0.030345988,-0.02726179,-0.023800017,-0.020705046,-0.017051846,-0.01367798,-0.009918615,-0.006327322,-0.002230253,0.0014986355,0.0055566356,0.008729231,0.012902384,0.01729833,0.021503432,0.025442623,0.029430745,0.03406067,0.037627004,0.042353123,0.04627593,0.05066276,0.054422654,0.05853015,0.06278501,0.06722204,0.07149568,0.0753947,0.07998051,0.08335399,0.087431155,0.09148952,0.09543372,0.09919094,0.10234305,0.10630465,0.10978378,0.112890646,0.11614887,0.11918258,0.12244837,0.12536834,0.12806779,0.13055788,0.13332501,0.1356752,0.13809016,0.1404135,0.14246203,0.1445898,0.14656982,0.14845783,0.1501682,0.15173227,0.15303376,0.15437439,0.15567033,0.15674046,0.15777706,0.15891556,0.15975909,0.16052958,0.16135119,0.1620174,0.16258816,0.16306911,0.16357914,0.16398583,0.16435073,0.16464965,0.16491677,0.16517034,0.16538736,0.165605,0.1657573,0.16588792,0.1660249,0.1661164,0.16619872,0.16627343,0.16633973,0.16638231,0.16642587,0.1664592,0.1664874,0.16651438,0.16653475,0.16655056,0.16656241,0.16657145,0.16657989,0.1665864,0.16659123,0.16659509,0.1665978,0.16659987,0.16660151,0.16660245,0.16660328,0.16660397,0.16660428,0.16660447,0.16660485,0.16660485,0.16660485,0.16660486,0.16660511,0.16660511,0.16660511,0.16660511,0.16660511,0.16660511,0.16660526,0.16660528,0.16660537,0.16660547,0.16660553,0.16660567,0.16660579,0.16660582,0.16660576,0.16660598,0.16660595,0.16660596,0.16660596,0.16660602,0.16660598,0.16660605,0.16660605,0.16660605,0.16660622,0.16660622,0.16660625,0.16660625,0.1666065,0.16660646,0.16660644,0.1666066,0.1666066,0.1666065,0.16660649,0.16660665,0.16660708,0.16660771,0.1666068,0.16660638,0.16660641,0.16660674,0.16660528,0.16660874,0.16660748,0.1666057,0.16661924,0.16663861,0.16669399,0.16653882,0.16668561,0.16688056,0.1650901,0.16686599,0.15914194,0.12480637,0.15636848,0.14029548,0.14222127,0.15071064,0.15605156,0.16030839,0.16059431,0.1612114,0.16120489,0.1613482,0.16138214,0.16140506,0.16140893
0_2_4,0.026882252,0.025282696,0.031183073,0.03525283,0.04440648,0.05256591,0.05218379,0.05249432,0.049935505,0.03798989,0.030438766,0.020835254,0.017016837,0.00455431,-0.00395497,-0.012459089,-0.02297295,-0.030507734,-0.040452782,-0.04785735,-0.056672968,-0.06513868,-0.07399719,-0.0825748,-0.09131688,-0.10068829,-0.10932529,-0.11847932,-0.12741853,-0.13676873,-0.14584184,-0.15487097,-0.16372928,-0.17361553,-0.18263161,-0.19185823,-0.20042372,-0.20984682,-0.219285,-0.22852542,-0.23731835,-0.24569896,-0.2551957,-0.26358467,-0.27270856,-0.28089386,-0.2893809,-0.29697663,-0.30528197,-0.31336635,-0.32150924,-0.32947066,-0.33668602,-0.344466,-0.35106876,-0.35817045,-0.36489153,-0.37174785,-0.3779736,-0.38352513,-0.3896653,-0.39553127,-0.4006825,-0.4058221,-0.41080633,-0.41580063,-0.42042786,-0.42464727,-0.42851567,-0.43263507,-0.43624535,-0.43988338,-0.44325382,-0.4463567,-0.44942662,-0.45229685,-0.4549697,-0.457389,-0.4596455,-0.46154195,-0.4634398,-0.46527162,-0.46682176,-0.46829137,-0.46986258,-0.47104612,-0.4721552,-0.4732892,-0.47421247,-0.47502142,-0.47569457,-0.47640908,-0.47698247,-0.47749797,-0.4779241,-0.4783065,-0.4786674,-0.4789771,-0.47928962,-0.47951037,-0.47970054,-0.47989905,-0.48003313,-0.480155,-0.48026577,-0.48036504,-0.48042884,-0.48049495,-0.4805457,-0.48058888,-0.48063096,-0.48066273,-0.48068795,-0.48070714,-0.48072183,-0.48073575,-0.4807466,-0.48075476,-0.48076138,-0.48076582,-0.48076925,-0.4807718,-0.48077306,-0.48077452,-0.4807759,-0.48077694,-0.48077795,-0.48077884,-0.48077893,-0.48077902,-0.48077905,-0.48077962,-0.4807798,-0.4807798,-0.4807798,-0.4807798,-0.4807798,-0.4807799,-0.4807799,-0.48077992,-0.48078004,-0.48078007,-0.48078012,-0.48078012,-0.48078024,-0.48078024,-0.48078042,-0.48078042,-0.48078042,-0.48078042,-0.48078063,-0.48078063,-0.48078063,-0.48078063,-0.48078063,-0.48078063,-0.48078063,-0.48078072,-0.48078072,-0.48078087,-0.48078087,-0.480781,-0.4807811,-0.4807811,-0.4807811,-0.4807811,-0.48078123,-0.48078164,-0.48078164,-0.48078182,-0.4807817,-0.48078147,-0.48078144,-0.4807809,-0.48078126,-0.48078233,-0.48078078,-0.4807964,-0.4808178,-0.48086765,-0.48071563,-0.48086193,-0.48103657,-0.47903073,-0.48220792,-0.4811181,-0.4907654,-0.49541107,-0.4611,-0.4597871,-0.46965304,-0.4758172,-0.48090127,-0.4819947,-0.48296264,-0.48321274,-0.48342592,-0.48351234,-0.48356268,-0.48357007
0_2_5,0.058696248,0.04520955,0.035285745,0.026239313,0.014604157,0.0042253467,-0.00086194556,-0.0046752384,-0.006805978,-0.0069444617,-0.007324289,-0.0070773484,-0.006503165,-0.0059108837,-0.0052705496,-0.004670762,-0.0040416736,-0.0037191655,-0.0027067922,-0.0021466964,-0.001216398,-0.00040476426,0.00033836946,0.0012586213,0.0018983389,0.0031862196,0.004094211,0.005180854,0.0060588554,0.0072452906,0.008286999,0.009579249,0.010783855,0.012186258,0.013461081,0.014922707,0.015896214,0.017406883,0.019057063,0.020609444,0.022048373,0.023569178,0.025363555,0.026610844,0.028514948,0.030017681,0.03178369,0.033255696,0.034860983,0.036590833,0.038428914,0.040186398,0.041795246,0.043775488,0.045121517,0.046859495,0.048631098,0.05031336,0.051953536,0.053288773,0.055070978,0.056576725,0.05793122,0.059386145,0.060714893,0.062192217,0.06349229,0.06470123,0.06581934,0.06708411,0.06814407,0.06924214,0.07031464,0.07124361,0.072228044,0.07314203,0.07402173,0.074818686,0.07554172,0.07614094,0.07676513,0.077368885,0.07786251,0.07834473,0.07887978,0.07927369,0.07962991,0.080015905,0.08032848,0.08059386,0.080818556,0.08105677,0.081246264,0.081416145,0.08155479,0.08167851,0.08179616,0.081896774,0.081997395,0.08206758,0.08212762,0.082190715,0.082232706,0.082270324,0.08230445,0.08233459,0.08235395,0.08237359,0.08238864,0.082401335,0.08241337,0.08242244,0.08242945,0.0824346,0.082438506,0.08244219,0.08244505,0.08244711,0.0824487,0.082449876,0.08245077,0.08245148,0.0824519,0.08245228,0.08245251,0.08245256,0.082452565,0.08245259,0.08245259,0.08245259,0.08245259,0.08245266,0.08245266,0.08245266,0.08245266,0.08245264,0.08245262,0.08245265,0.08245265,0.08245268,0.08245271,0.08245273,0.08245277,0.0824528,0.0824528,0.08245274,0.082452804,0.08245278,0.082452774,0.082452774,0.082452744,0.082452685,0.08245272,0.08245272,0.0824527,0.08245277,0.082452744,0.08245275,0.08245268,0.08245279,0.08245275,0.0824527,0.08245278,0.08245278,0.08245273,0.08245268,0.08245276,0.082452975,0.0824534,0.08245283,0.08245263,0.08245273,0.08245294,0.082452096,0.08245426,0.08245334,0.08245241,0.08245916,0.08246892,0.08249832,0.08241747,0.08249366,0.08259734,0.08169577,0.08243629,0.077391155,0.048639596,0.0751867,0.06463898,0.06695886,0.07402169,0.0784756,0.081991225,0.08207534,0.082538284,0.0824807,0.08259062,0.082609355,0.082623675,0.08262634
0_2_6,0.10243006,0.11830935,0.13437852,0.15064953,0.16961747,0.1871267,0.19849233,0.2065654,0.2127829,0.22075678,0.2265528,0.23245436,0.23390183,0.24129592,0.24598362,0.25081316,0.2570791,0.26183558,0.2670658,0.27133882,0.27595404,0.28055093,0.28557056,0.29007462,0.2952227,0.2996434,0.30424094,0.3088952,0.31379172,0.31843087,0.32314593,0.32737505,0.33164963,0.33632743,0.34061378,0.34472334,0.3492533,0.35343927,0.35738775,0.36138168,0.3652669,0.36870235,0.37247512,0.37643993,0.37975308,0.38311273,0.3862247,0.38921496,0.3924993,0.39539835,0.3981467,0.40091753,0.40340582,0.40564105,0.40816158,0.41034237,0.41217333,0.4142807,0.41598907,0.41775268,0.4191393,0.4208334,0.4222623,0.4235006,0.42485514,0.42594498,0.4270834,0.4280793,0.4289756,0.42979357,0.43060154,0.43136072,0.4319623,0.4326253,0.4331607,0.43367365,0.43409893,0.43448257,0.43487856,0.43522707,0.43553048,0.43582106,0.4360992,0.43633646,0.43655407,0.4367351,0.43692857,0.43708605,0.4372173,0.4373483,0.43745017,0.43755886,0.437649,0.43773106,0.43780217,0.4378673,0.4379271,0.4379792,0.4380333,0.4380733,0.43810835,0.43814412,0.43816963,0.43819347,0.43821564,0.4382362,0.43824953,0.43826398,0.43827507,0.43828493,0.43829504,0.4383027,0.438309,0.43831408,0.43831816,0.43832207,0.4383251,0.43832758,0.4383296,0.43833077,0.43833184,0.43833262,0.43833292,0.43833312,0.43833357,0.43833372,0.43833375,0.43833378,0.43833378,0.43833378,0.43833378,0.43833378,0.43833378,0.43833378,0.43833378,0.43833387,0.43833387,0.43833387,0.4383339,0.4383339,0.4383339,0.4383339,0.4383339,0.4383339,0.4383339,0.4383339,0.4383339,0.4383339,0.4383339,0.4383339,0.43833393,0.43833396,0.43833396,0.43833396,0.43833396,0.43833396,0.43833396,0.43833396,0.43833405,0.43833405,0.43833405,0.43833426,0.43833426,0.43833426,0.43833426,0.43833426,0.43833426,0.43833405,0.43833312,0.43833435,0.43833455,0.4383343,0.4383339,0.43833524,0.43833145,0.43833405,0.43833452,0.4383341,0.43833253,0.43831655,0.4383493,0.43832073,0.438263,0.43838885,0.43947253,0.4460993,0.48023123,0.45581374,0.44525647,0.44132963,0.44030887,0.43963128,0.43927467,0.44004595,0.44023854,0.4405119,0.44054437,0.44059008,0.44061244,0.4406149
0_2_7,0.091775134,0.10548375,0.114621416,0.123638086,0.13323669,0.14204825,0.14925723,0.1542723,0.15921386,0.16893417,0.17573349,0.18353815,0.18620397,0.19655612,0.2035103,0.2106001,0.2196543,0.22635683,0.2345922,0.240998,0.24834774,0.2555279,0.26318878,0.27039382,0.27809754,0.28567207,0.29298958,0.30060983,0.30828208,0.3160052,0.32363635,0.3309447,0.3381985,0.34623972,0.3535918,0.36094543,0.36822432,0.37573716,0.38311377,0.3904197,0.39743197,0.40395325,0.4112708,0.41813436,0.42497852,0.4313654,0.43776038,0.44361463,0.45003018,0.45609328,0.4620962,0.46802133,0.4733821,0.47888768,0.48395035,0.48906827,0.49376896,0.49871752,0.5030859,0.507133,0.5112606,0.5154366,0.51906776,0.52257544,0.5260748,0.52941686,0.5325942,0.53546655,0.5380903,0.5408007,0.54323363,0.54565156,0.54782915,0.5499022,0.5518785,0.55373466,0.55543095,0.5569656,0.55842125,0.55965424,0.5608604,0.5620234,0.56302744,0.5639631,0.5649414,0.5656892,0.5664046,0.56711125,0.56768835,0.56820405,0.56862867,0.5690799,0.56944376,0.5697715,0.5700448,0.57029074,0.57052195,0.57072055,0.57092184,0.57106537,0.5711895,0.57131857,0.57140654,0.571487,0.5715603,0.5716266,0.571669,0.57171357,0.57174766,0.5717768,0.57180613,0.57182777,0.5718451,0.5718585,0.5718689,0.57187915,0.5718868,0.5718926,0.57189745,0.5719006,0.57190317,0.5719054,0.57190603,0.57190627,0.57190627,0.5719063,0.5719063,0.5719063,0.5719063,0.5719063,0.5719063,0.5719063,0.5719063,0.5719063,0.5719063,0.5719063,0.5719063,0.5719063,0.5719063,0.5719063,0.5719063,0.5719063,0.5719063,0.5719063,0.5719063,0.5719063,0.5719063,0.5719063,0.5719063,0.5719063,0.5719063,0.5719063,0.5719063,0.5719063,0.5719063,0.5719063,0.5719063,0.5719063,0.5719063,0.5719063,0.5719063,0.5719063,0.5719063,0.5719063,0.5719063,0.5719063,0.5719063,0.5719063,0.5719063,0.5719063,0.5719063,0.57190627,0.5719061,0.5719063,0.5719043,0.57190645,0.571906,0.5719141,0.5719245,0.5719414,0.57188,0.57194054,0.57199854,0.5709988,0.5733806,0.5772837,0.60584635,0.5883066,0.561518,0.5580213,0.56340414,0.5667537,0.5696597,0.5708661,0.5715983,0.57194066,0.57209504,0.57218015,0.5722266,0.57223296
0_2_8,0.0047984994,-0.010918543,-0.023640275,-0.035709966,-0.05016717,-0.063204035,-0.070519105,-0.0757468,-0.07908492,-0.081225425,-0.08288593,-0.083987065,-0.08377379,-0.084759675,-0.08507626,-0.08543239,-0.08601147,-0.08657509,-0.08656591,-0.08679924,-0.0867376,-0.086779594,-0.08695805,-0.08687791,-0.08717438,-0.086730815,-0.08667804,-0.08646464,-0.0864938,-0.08618558,-0.08602795,-0.08555012,-0.08516224,-0.08465963,-0.08421083,-0.0835555,-0.08343397,-0.08274761,-0.08188752,-0.081126764,-0.08045635,-0.07962991,-0.07860486,-0.07813081,-0.076922566,-0.076101355,-0.07498902,-0.074131586,-0.07320167,-0.072086975,-0.07084294,-0.06967963,-0.06860674,-0.06713996,-0.06632047,-0.06507169,-0.063728735,-0.0625196,-0.061279584,-0.060336433,-0.058905646,-0.05779017,-0.05676922,-0.055620097,-0.05461081,-0.05341474,-0.05239406,-0.051433817,-0.050541174,-0.049496837,-0.048643366,-0.047745418,-0.04684336,-0.046087373,-0.04525643,-0.044487864,-0.043735977,-0.04305445,-0.04244476,-0.04194302,-0.04140981,-0.04089353,-0.040478665,-0.04006723,-0.039602604,-0.03926426,-0.038963623,-0.03862852,-0.038357884,-0.03813154,-0.03793827,-0.03773352,-0.037571326,-0.037426125,-0.03730835,-0.037203576,-0.03710356,-0.03701819,-0.0369332,-0.03687431,-0.03682408,-0.0367711,-0.036736194,-0.036705077,-0.0366769,-0.03665223,-0.036636367,-0.036620446,-0.036608305,-0.03659813,-0.0365886,-0.03658142,-0.036575973,-0.036572017,-0.036569063,-0.036566313,-0.036564186,-0.03656269,-0.036561556,-0.03656067,-0.03656002,-0.0365595,-0.036559135,-0.036558867,-0.036558796,-0.036558833,-0.03655884,-0.036558867,-0.036559008,-0.03655914,-0.03655922,-0.03655918,-0.03655929,-0.036559407,-0.03655949,-0.03655962,-0.03655971,-0.03655968,-0.03655977,-0.036559805,-0.036559824,-0.03655985,-0.036559828,-0.036559843,-0.03655998,-0.036560126,-0.036560092,-0.036560185,-0.036560275,-0.03656038,-0.036560427,-0.03656054,-0.036560602,-0.036560692,-0.03656083,-0.036560755,-0.03656089,-0.03656093,-0.036561072,-0.036560986,-0.036561113,-0.03656121,-0.03656118,-0.036561195,-0.036561273,-0.036561344,-0.036561307,-0.036561064,-0.036560547,-0.036561288,-0.0365615,-0.036561348,-0.03656109,-0.03656212,-0.036559403,-0.036560714,-0.036561713,-0.036555275,-0.03654578,-0.036515247,-0.036597136,-0.036520384,-0.03641256,-0.037283175,-0.036779404,-0.042789284,-0.0750272,-0.047975484,-0.054316696,-0.051517002,-0.04543301,-0.041587215,-0.03859183,-0.03869697,-0.038356878,-0.038466614,-0.03838288,-0.038377736,-0.038370926,-0.038369283
0_2_9,-0.08138162,-0.06847811,-0.05922205,-0.05117242,-0.04071559,-0.031602263,-0.027829267,-0.024971895,-0.023887845,-0.025962666,-0.027178252,-0.029292507,-0.030510737,-0.03363015,-0.03597929,-0.03832952,-0.041185174,-0.04315314,-0.046180736,-0.048302032,-0.05101913,-0.053573523,-0.056174118,-0.058838215,-0.061343275,-0.06446037,-0.06713684,-0.070065886,-0.07279855,-0.07585175,-0.07873999,-0.081797875,-0.08475571,-0.088101715,-0.09115324,-0.09439084,-0.09712698,-0.100451805,-0.10388168,-0.10719835,-0.11032993,-0.11342244,-0.116980016,-0.119885206,-0.123435944,-0.12647761,-0.1297813,-0.1326627,-0.13581125,-0.13899688,-0.14227472,-0.14545362,-0.14834724,-0.15164211,-0.15420297,-0.15716405,-0.16005643,-0.16292016,-0.16560076,-0.16790181,-0.17066312,-0.17316267,-0.1753807,-0.17766789,-0.17982784,-0.1820958,-0.18414873,-0.18603753,-0.18777633,-0.18968032,-0.19131497,-0.19298345,-0.19456835,-0.19598629,-0.1974354,-0.19878574,-0.20006348,-0.20122053,-0.20228542,-0.2031745,-0.20408152,-0.20495792,-0.20568739,-0.206389,-0.20715287,-0.20772181,-0.20824584,-0.20879701,-0.20924455,-0.20963076,-0.20995484,-0.21029863,-0.21057333,-0.21081996,-0.21102265,-0.21120393,-0.21137568,-0.21152283,-0.21167067,-0.2117745,-0.21186364,-0.2119569,-0.21201952,-0.212076,-0.2121273,-0.21217296,-0.21220231,-0.21223241,-0.21225551,-0.21227513,-0.21229403,-0.21230826,-0.21231937,-0.2123278,-0.21233414,-0.21234015,-0.21234483,-0.2123483,-0.21235111,-0.21235304,-0.21235453,-0.21235564,-0.21235633,-0.21235706,-0.21235767,-0.2123579,-0.21235794,-0.21235813,-0.21235813,-0.21235813,-0.21235813,-0.21235818,-0.21235818,-0.21235818,-0.21235818,-0.21235818,-0.21235818,-0.21235818,-0.21235818,-0.21235818,-0.21235819,-0.21235819,-0.21235819,-0.21235819,-0.2123582,-0.2123582,-0.21235824,-0.21235824,-0.21235824,-0.21235824,-0.2123583,-0.2123583,-0.2123583,-0.2123583,-0.2123583,-0.21235833,-0.21235833,-0.21235834,-0.21235834,-0.21235849,-0.21235849,-0.2123585,-0.2123586,-0.2123586,-0.2123586,-0.2123586,-0.21235868,-0.21235889,-0.21235931,-0.21235892,-0.21235862,-0.21235861,-0.21235871,-0.212358,-0.2123596,-0.21235922,-0.21235816,-0.21236677,-0.21237898,-0.212412,-0.21231754,-0.21240729,-0.21252345,-0.21139355,-0.21269843,-0.2087086,-0.18753713,-0.2126682,-0.19266514,-0.19382066,-0.20261812,-0.20814289,-0.21258648,-0.21306345,-0.21376231,-0.2138167,-0.21397623,-0.21402265,-0.21405204,-0.21405676
0_3_0,-0.15182692,-0.1476567,-0.14218102,-0.13731898,-0.13329901,-0.13204096,-0.122872286,-0.11859276,-0.11440155,-0.10942055,-0.10450886,-0.09976672,-0.094184525,-0.08928311,-0.08368018,-0.07802941,-0.07281733,-0.067250416,-0.061493736,-0.055515114,-0.049510326,-0.0434371,-0.037302244,-0.031146184,-0.025171945,-0.018929943,-0.012466633,-0.0065288288,-0.00019736424,0.005906756,0.012046229,0.01838173,0.024739342,0.030440582,0.036689483,0.0427571,0.048677422,0.05443143,0.060339652,0.065778635,0.07178617,0.07734337,0.082761295,0.0879354,0.09304267,0.098371215,0.10296527,0.108211055,0.11252168,0.11709144,0.121556014,0.12530036,0.1297658,0.13402861,0.13775025,0.14141728,0.14504397,0.14822656,0.15163127,0.15449972,0.157414,0.16025709,0.16277663,0.16532521,0.16761062,0.17004661,0.17204253,0.17410786,0.1758384,0.17784481,0.17933224,0.18089052,0.18233845,0.18354481,0.1847125,0.18578947,0.18679056,0.1877879,0.18864211,0.18937074,0.19022724,0.19083825,0.19140786,0.1919779,0.19247721,0.192907,0.19325717,0.19361569,0.19394991,0.19420817,0.1944953,0.19470735,0.19491147,0.19506794,0.19522148,0.1953232,0.19544867,0.19553228,0.1956245,0.19569515,0.19575971,0.19581482,0.19586189,0.19590262,0.19593792,0.19596608,0.19598602,0.19600926,0.19602849,0.19603834,0.1960464,0.19605267,0.19606012,0.19606446,0.19606695,0.1960695,0.19607261,0.19607456,0.19607581,0.196077,0.19607787,0.19607861,0.19607936,0.19607978,0.19608022,0.19608067,0.19608124,0.19608149,0.19608167,0.19608171,0.19608171,0.19608183,0.19608183,0.19608183,0.19608183,0.19608194,0.19608204,0.19608207,0.19608217,0.19608232,0.19608243,0.19608247,0.19608255,0.1960828,0.1960828,0.19608293,0.19608307,0.19608346,0.19608355,0.19608356,0.19608362,0.19608364,0.1960837,0.19608381,0.19608381,0.19608381,0.19608381,0.19608389,0.1960841,0.19608408,0.19608411,0.19608408,0.1960841,0.19608414,0.19608414,0.19608417,0.19608419,0.19608383,0.19608374,0.19608395,0.19608428,0.19608459,0.19608459,0.19608441,0.1960838,0.19608448,0.19608629,0.19608256,0.1961095,0.19614431,0.19605835,0.1960485,0.19604044,0.19624996,0.1958482,0.20181659,0.20520657,0.19335052,0.19918784,0.19725803,0.19610712,0.1973079,0.19773027,0.19776273,0.1973384,0.19751583,0.19749305,0.19755304,0.19756939,0.19758035
0_3_1,-0.011948413,-0.011051796,-0.01178138,-0.0067052823,-0.0015279552,-0.0002593934,0.0070639984,0.010965853,0.012661618,0.022143345,0.025809294,0.03277033,0.03429318,0.039666977,0.045559593,0.051490072,0.060788933,0.066642955,0.074578606,0.081642315,0.088509776,0.09577192,0.103602596,0.11066098,0.11869032,0.12595664,0.13398494,0.14098924,0.1489311,0.1562053,0.16363825,0.17087807,0.17819186,0.18517846,0.19244513,0.19935064,0.20652469,0.21281514,0.21923836,0.22543854,0.2320822,0.23839864,0.24397483,0.24992952,0.25511912,0.2608812,0.26538312,0.2707313,0.2758966,0.2806189,0.28480598,0.2886566,0.29271027,0.29638132,0.30028164,0.30363458,0.30657396,0.3094996,0.31240305,0.3151754,0.31736407,0.31952798,0.3217481,0.32353485,0.32513228,0.3266363,0.32813054,0.32946163,0.33056056,0.3314733,0.3323605,0.33314097,0.33380345,0.33450848,0.3349059,0.33539185,0.33573654,0.33603334,0.33626297,0.3364817,0.33657977,0.33665904,0.33674812,0.3367846,0.3367759,0.3367786,0.3367766,0.33673713,0.33668813,0.33663386,0.33655638,0.33649448,0.33642226,0.33635935,0.33629218,0.33624008,0.33617187,0.33612257,0.3360634,0.3360149,0.33596763,0.3359237,0.33588475,0.33584794,0.335815,0.3357872,0.33576602,0.33574048,0.3357187,0.33570573,0.33569503,0.33568653,0.33567685,0.33567053,0.33566627,0.3356622,0.33565754,0.33565447,0.33565253,0.33565038,0.33564943,0.3356482,0.335647,0.33564663,0.33564612,0.33564612,0.33564612,0.33564612,0.33564612,0.33564612,0.33564612,0.33564612,0.33564612,0.33564612,0.33564612,0.33564612,0.33564612,0.33564612,0.33564612,0.33564612,0.33564612,0.33564612,0.33564612,0.33564612,0.33564612,0.33564612,0.33564612,0.33564612,0.33564612,0.33564612,0.33564612,0.33564612,0.33564612,0.33564612,0.33564612,0.33564612,0.33564612,0.33564612,0.33564612,0.33564612,0.33564612,0.33564612,0.33564612,0.33564612,0.33564612,0.33564612,0.33564612,0.33564565,0.33564556,0.33564606,0.3356461,0.33564585,0.3356459,0.33564594,0.33564582,0.33564937,0.3356467,0.33564615,0.3356507,0.33564362,0.335656,0.33566365,0.33561122,0.33593526,0.33271146,0.3345226,0.33443967,0.33508477,0.3328065,0.3308405,0.33205312,0.33262554,0.3338868,0.33413616,0.33434877,0.334518,0.33445728,0.33445233,0.33443615,0.33442864
0_3_2,-0.047007844,-0.049929406,-0.053774573,-0.056272585,-0.057839442,-0.058419243,-0.06340178,-0.06599027,-0.06949444,-0.0692095,-0.07230975,-0.07262111,-0.07828008,-0.079594195,-0.08105281,-0.08237058,-0.0795903,-0.0806547,-0.07971838,-0.07992835,-0.08037247,-0.080455944,-0.07995993,-0.080334924,-0.07939781,-0.07965,-0.07935132,-0.07949619,-0.079099044,-0.07914117,-0.0790562,-0.07946099,-0.07980927,-0.07964201,-0.07989435,-0.08030069,-0.08021157,-0.08089242,-0.08163535,-0.08199593,-0.0826138,-0.08300254,-0.08403736,-0.08432824,-0.085376255,-0.08608465,-0.08722008,-0.08828476,-0.08829593,-0.08914997,-0.090473056,-0.09120476,-0.09267736,-0.0943078,-0.09495374,-0.09613972,-0.09774693,-0.09876121,-0.100105,-0.100867376,-0.10235415,-0.10377087,-0.10468964,-0.106134,-0.10743502,-0.109045476,-0.11007195,-0.11137683,-0.11248913,-0.114186265,-0.11520755,-0.11644541,-0.117667586,-0.1185134,-0.119653784,-0.12057055,-0.12154333,-0.12256592,-0.123468995,-0.12421402,-0.12526882,-0.12601073,-0.12668565,-0.12742046,-0.12811005,-0.12869209,-0.12917104,-0.12970372,-0.13021402,-0.13062699,-0.13110545,-0.13146405,-0.13182352,-0.13210754,-0.13239262,-0.13258988,-0.13283774,-0.13300723,-0.13319957,-0.13335058,-0.13349168,-0.1336164,-0.13372445,-0.13382147,-0.13390681,-0.13397658,-0.13402775,-0.13408826,-0.13413894,-0.13416709,-0.13419019,-0.13420825,-0.13422929,-0.13424239,-0.13425063,-0.13425855,-0.134268,-0.13427405,-0.13427801,-0.13428201,-0.13428426,-0.13428663,-0.13428886,-0.13428985,-0.13429102,-0.13429174,-0.13429256,-0.13429324,-0.13429382,-0.13429438,-0.13429467,-0.13429494,-0.13429509,-0.13429524,-0.13429537,-0.13429561,-0.13429561,-0.13429573,-0.13429582,-0.134296,-0.13429616,-0.13429624,-0.1342963,-0.1342966,-0.13429667,-0.13429672,-0.13429672,-0.13429676,-0.13429691,-0.13429691,-0.1342969,-0.1342969,-0.13429704,-0.13429713,-0.13429713,-0.13429713,-0.13429713,-0.13429719,-0.1342973,-0.13429736,-0.13429734,-0.13429734,-0.13429739,-0.13429743,-0.13429742,-0.13429731,-0.13429727,-0.13429724,-0.13429736,-0.13429697,-0.13429764,-0.13429844,-0.13429841,-0.13429806,-0.1342974,-0.13429451,-0.13430001,-0.13429552,-0.13432713,-0.13438271,-0.13425171,-0.13422957,-0.13427778,-0.1341972,-0.13727361,-0.13984501,-0.14122142,-0.12722193,-0.13705716,-0.13705716,-0.13438776,-0.13502042,-0.13400598,-0.13375007,-0.13304149,-0.13303655,-0.13308269,-0.13315354,-0.13319014,-0.13321075
0_3_3,-0.052173954,-0.04785528,-0.042982366,-0.035782423,-0.029588183,-0.027643984,-0.0139245065,-0.0071024634,-0.0004266247,0.008219397,0.016453037,0.02461895,0.03398542,0.04230284,0.051766593,0.06128789,0.07002643,0.079352014,0.08894483,0.098911315,0.10890521,0.11899039,0.12913729,0.13932838,0.1491738,0.15946878,0.17010728,0.17988493,0.1902667,0.20028175,0.21033671,0.22071661,0.2311208,0.24041891,0.25061598,0.26051003,0.27014607,0.27951732,0.2891388,0.2979795,0.30773786,0.31676102,0.32556164,0.33394772,0.34223878,0.35087276,0.35832524,0.3668267,0.37378985,0.38118532,0.38842574,0.3944855,0.40172774,0.40864378,0.41466078,0.42060164,0.42649144,0.43164602,0.4371681,0.44180876,0.4465454,0.45116425,0.45524865,0.45939288,0.4631101,0.46707842,0.47032246,0.47368637,0.4765058,0.4797863,0.48221207,0.4847582,0.48712653,0.48909506,0.49100944,0.4927719,0.4944134,0.49605075,0.49745396,0.49865013,0.50006175,0.50106835,0.5020063,0.5029468,0.503772,0.50448227,0.505061,0.5056547,0.50620866,0.5066373,0.5071147,0.50746727,0.5078071,0.50806797,0.5083243,0.5084942,0.50870395,0.50884384,0.5089985,0.5091172,0.5092255,0.50931823,0.50939745,0.5094662,0.50952595,0.5095735,0.50960726,0.5096465,0.50967884,0.5096954,0.50970894,0.50971943,0.50973207,0.5097397,0.5097439,0.50974804,0.5097532,0.5097564,0.5097589,0.5097608,0.50976217,0.50976306,0.5097634,0.5097634,0.5097634,0.5097634,0.5097634,0.5097634,0.5097634,0.5097634,0.5097634,0.5097634,0.5097634,0.5097634,0.5097634,0.5097634,0.5097634,0.5097634,0.5097634,0.5097634,0.5097634,0.5097634,0.5097634,0.5097634,0.5097634,0.5097634,0.5097634,0.5097634,0.5097634,0.5097634,0.5097634,0.5097634,0.5097634,0.5097634,0.5097634,0.5097634,0.5097634,0.5097634,0.5097634,0.5097634,0.5097634,0.5097634,0.5097634,0.5097634,0.5097634,0.5097634,0.5097634,0.50976294,0.50976294,0.50976294,0.50976306,0.5097632,0.5097632,0.509763,0.50976205,0.5097631,0.50976604,0.5097597,0.5098041,0.509862,0.5097196,0.50970304,0.50969166,0.5100273,0.5094703,0.5177172,0.5211204,0.50731593,0.51344097,0.5114546,0.51019466,0.511452,0.5118618,0.51188856,0.51143116,0.5116144,0.51159215,0.51165605,0.5116739,0.51168597
0_3_4,-0.092312895,-0.09506737,-0.10271378,-0.10713225,-0.11143497,-0.11299981,-0.12720917,-0.1332475,-0.14085075,-0.14174259,-0.1477834,-0.14976798,-0.1581526,-0.16126652,-0.16493244,-0.16847435,-0.16811906,-0.17138194,-0.1730133,-0.17574653,-0.17869115,-0.18138145,-0.18364434,-0.18662639,-0.18847673,-0.1914005,-0.19398578,-0.19669804,-0.19914943,-0.2018592,-0.20448063,-0.2075764,-0.21064179,-0.21300326,-0.21594259,-0.21892703,-0.22145429,-0.224517,-0.22770049,-0.23037516,-0.23350509,-0.23625754,-0.23945712,-0.24195813,-0.24503535,-0.24793817,-0.25085604,-0.25400594,-0.25590983,-0.2585951,-0.2616049,-0.2638275,-0.26695743,-0.27012146,-0.2722672,-0.2748164,-0.27767855,-0.27987808,-0.282435,-0.284297,-0.2867506,-0.2891171,-0.29094774,-0.2932051,-0.29523394,-0.2975726,-0.29925713,-0.30119103,-0.30282623,-0.3050426,-0.3064989,-0.30815655,-0.30975285,-0.310947,-0.3123555,-0.31354862,-0.31475228,-0.31599304,-0.3170772,-0.31798187,-0.31918603,-0.32003668,-0.32081625,-0.32164323,-0.3224036,-0.32304907,-0.32357863,-0.32415387,-0.32470098,-0.32513833,-0.32563978,-0.3260142,-0.32638586,-0.32667723,-0.3269683,-0.32716766,-0.32741717,-0.32758686,-0.32777822,-0.3279276,-0.32806665,-0.3281887,-0.32829395,-0.32838792,-0.32847044,-0.32853734,-0.32858625,-0.3286439,-0.32869196,-0.32871833,-0.32874012,-0.32875702,-0.32877675,-0.3287889,-0.32879654,-0.32880384,-0.32881254,-0.32881823,-0.3288219,-0.3288255,-0.32882753,-0.3288297,-0.3288316,-0.3288325,-0.32883337,-0.32883412,-0.32883522,-0.32883596,-0.32883623,-0.32883668,-0.32883668,-0.32883668,-0.32883668,-0.32883668,-0.32883668,-0.32883668,-0.32883668,-0.32883668,-0.32883668,-0.32883668,-0.3288367,-0.3288367,-0.3288367,-0.32883674,-0.32883674,-0.32883674,-0.32883674,-0.32883674,-0.32883674,-0.32883674,-0.32883674,-0.32883674,-0.32883674,-0.32883674,-0.32883674,-0.32883674,-0.32883674,-0.32883674,-0.32883674,-0.32883674,-0.32883674,-0.32883674,-0.32883674,-0.32883674,-0.32883674,-0.32883674,-0.32883674,-0.32883662,-0.32883662,-0.32883623,-0.32883686,-0.32883754,-0.32883754,-0.32883725,-0.32883647,-0.3288345,-0.3288395,-0.32883444,-0.32887098,-0.32892987,-0.32878938,-0.32876766,-0.32880202,-0.32883087,-0.3310862,-0.3357263,-0.3395946,-0.31924275,-0.32959336,-0.3289979,-0.32638517,-0.3273433,-0.32666478,-0.32646662,-0.3257303,-0.32579088,-0.32582033,-0.32590038,-0.32593635,-0.32595733
0_3_5,0.019988079,0.02407113,0.029409574,0.034077168,0.037973084,0.03917385,0.047860004,0.051896337,0.055711374,0.060819447,0.06542181,0.070191264,0.075178765,0.07998259,0.08546416,0.09100752,0.0965553,0.102036364,0.10792066,0.113903806,0.11988943,0.12598099,0.13219343,0.13833885,0.14443585,0.1506821,0.15720777,0.16316172,0.16956723,0.17570062,0.18188372,0.18821652,0.19457844,0.20033318,0.20659833,0.21266691,0.21863803,0.22436637,0.2302451,0.23569012,0.2416838,0.24724752,0.2526082,0.25779834,0.26284656,0.26815286,0.2726769,0.27786648,0.28221753,0.28674755,0.29112613,0.29483664,0.29920313,0.30335015,0.30704805,0.3106384,0.3141474,0.31726614,0.32057774,0.32340452,0.3262073,0.32894543,0.33140525,0.3338435,0.3360296,0.3383383,0.34025887,0.34222293,0.3438669,0.3457337,0.34714082,0.3485989,0.34994692,0.35108703,0.3521593,0.35316142,0.35408148,0.35499296,0.35577112,0.3564374,0.35720336,0.35775074,0.35826266,0.3587694,0.3592087,0.35958803,0.35989657,0.36020845,0.3604979,0.36071983,0.3609647,0.36114505,0.36131728,0.36144847,0.36157665,0.36166063,0.361764,0.36183244,0.36190745,0.3619646,0.36201647,0.36206037,0.36209774,0.36212957,0.3621571,0.362179,0.36219433,0.36221203,0.36222652,0.36223364,0.36223966,0.36224425,0.36224976,0.36225295,0.36225468,0.3622564,0.36225864,0.36226,0.36226115,0.3622619,0.36226228,0.36226237,0.3622624,0.3622624,0.3622624,0.3622624,0.3622624,0.3622624,0.3622624,0.3622624,0.3622624,0.3622624,0.3622624,0.3622624,0.3622624,0.3622624,0.3622624,0.3622624,0.3622624,0.3622624,0.3622624,0.3622624,0.3622624,0.3622624,0.3622624,0.3622624,0.3622624,0.3622624,0.3622624,0.3622624,0.3622624,0.3622624,0.3622624,0.3622624,0.3622624,0.3622624,0.3622624,0.3622624,0.3622624,0.3622624,0.3622624,0.3622624,0.3622624,0.3622624,0.3622624,0.3622624,0.3622624,0.362262,0.36226198,0.362262,0.36226207,0.36226216,0.36226222,0.36226195,0.36226147,0.36226243,0.3622637,0.36226037,0.3622846,0.36231446,0.36224002,0.36223224,0.36221945,0.36243945,0.3617321,0.36730102,0.3701775,0.3604794,0.36537305,0.36336973,0.36251345,0.36367598,0.36423942,0.36430493,0.36395434,0.36413848,0.36410922,0.36416247,0.3641748,0.36418352
0_3_6,-0.060410865,-0.06304858,-0.064796574,-0.070659846,-0.075961575,-0.0773426,-0.085540906,-0.08974586,-0.09217155,-0.10119591,-0.10548314,-0.11249305,-0.11518192,-0.12096262,-0.12735824,-0.13381794,-0.14303568,-0.14941767,-0.15762012,-0.1651426,-0.1725024,-0.18021546,-0.1884297,-0.1959956,-0.20433466,-0.21209669,-0.22056283,-0.22802503,-0.2363871,-0.24412572,-0.2520069,-0.25977314,-0.26760942,-0.27499884,-0.2827688,-0.2901885,-0.29779872,-0.30461586,-0.31158653,-0.31824818,-0.32543534,-0.332229,-0.33835733,-0.34474492,-0.35046867,-0.3567351,-0.36174247,-0.36763754,-0.37313816,-0.3783295,-0.38303858,-0.38727608,-0.39187434,-0.3960954,-0.40037197,-0.4041697,-0.40760422,-0.41091463,-0.41426325,-0.4173632,-0.41997784,-0.422554,-0.42509398,-0.42727304,-0.42922342,-0.43113345,-0.4329213,-0.43458858,-0.4359717,-0.43726772,-0.43840796,-0.43947577,-0.44041446,-0.44132707,-0.4419676,-0.4426604,-0.44321325,-0.44372407,-0.444141,-0.4445159,-0.4448215,-0.44504747,-0.44527096,-0.4454497,-0.4455717,-0.44568545,-0.44577453,-0.44583377,-0.44587868,-0.4458995,-0.44590798,-0.4459102,-0.44590166,-0.4458888,-0.44587147,-0.4458536,-0.44582817,-0.44580796,-0.44578156,-0.44575867,-0.4457352,-0.445712,-0.44569108,-0.4456705,-0.44565174,-0.44563532,-0.44562247,-0.44560662,-0.44559315,-0.44558474,-0.4455778,-0.44557217,-0.4455658,-0.44556153,-0.44555843,-0.44555563,-0.44555238,-0.44555035,-0.44554907,-0.44554758,-0.44554687,-0.44554612,-0.44554543,-0.44554526,-0.44554526,-0.44554526,-0.44554526,-0.44554526,-0.44554526,-0.44554526,-0.44554526,-0.44554526,-0.44554526,-0.44554526,-0.44554526,-0.44554526,-0.44554526,-0.44554526,-0.44554526,-0.44554526,-0.44554526,-0.44554526,-0.44554526,-0.44554526,-0.44554526,-0.44554526,-0.44554526,-0.44554526,-0.44554526,-0.44554526,-0.44554526,-0.44554526,-0.44554526,-0.44554526,-0.44554526,-0.44554526,-0.44554526,-0.44554526,-0.44554526,-0.44554526,-0.44554526,-0.44554526,-0.44554526,-0.44554526,-0.44554526,-0.44554526,-0.44554526,-0.44554475,-0.4455446,-0.445545,-0.44554508,-0.44554493,-0.44554505,-0.445545,-0.44554475,-0.4455479,-0.44554603,-0.44554457,-0.44555545,-0.44555834,-0.4455467,-0.44555077,-0.4455041,-0.4458346,-0.4429791,-0.44571617,-0.44615507,-0.44502264,-0.44422582,-0.44215843,-0.44298017,-0.44371718,-0.44489595,-0.44511873,-0.44521824,-0.44540066,-0.44534346,-0.44535118,-0.4453402,-0.44533595
0_3_7,0.06638621,0.06376523,0.061987553,0.059382025,0.057317715,0.05696744,0.056185935,0.05568954,0.05694831,0.051974554,0.051879164,0.0486198,0.05074665,0.048805963,0.046734758,0.044597358,0.038949076,0.036739703,0.03263772,0.029486297,0.026530545,0.023230108,0.01940626,0.016337205,0.01221633,0.008989467,0.005158655,0.0020001885,-0.0018415994,-0.0051722163,-0.008638641,-0.011795686,-0.015012998,-0.018321471,-0.021566117,-0.024573287,-0.027933855,-0.03053542,-0.03316921,-0.035876017,-0.038669754,-0.04141799,-0.043528423,-0.04615976,-0.048082683,-0.0504307,-0.051995937,-0.05398628,-0.056381058,-0.05817872,-0.059510533,-0.06096151,-0.062159847,-0.06310708,-0.0646199,-0.065626204,-0.06624528,-0.067132786,-0.06785615,-0.06878927,-0.06911292,-0.06945741,-0.07006099,-0.07021726,-0.070351906,-0.070298135,-0.07051284,-0.070521474,-0.070512116,-0.070142455,-0.070076995,-0.06986042,-0.06959647,-0.06952836,-0.069179416,-0.06897605,-0.068680756,-0.06833997,-0.06802371,-0.06777653,-0.0673281,-0.06701746,-0.06674277,-0.066415556,-0.06608851,-0.0658171,-0.065591805,-0.06532396,-0.06506212,-0.06484344,-0.06458329,-0.064386494,-0.064184465,-0.06402225,-0.063857466,-0.0637409,-0.06359313,-0.06349084,-0.06337324,-0.06327999,-0.063191906,-0.06311304,-0.06304441,-0.06298188,-0.0629266,-0.062880985,-0.06284713,-0.06280685,-0.062773086,-0.062753886,-0.06273809,-0.062725656,-0.062711276,-0.06270227,-0.06269633,-0.06269075,-0.0626842,-0.062679954,-0.0626772,-0.06267437,-0.06267286,-0.06267121,-0.062669635,-0.062669024,-0.06266827,-0.06266789,-0.06266738,-0.06266695,-0.06266661,-0.06266622,-0.062666066,-0.06266594,-0.06266587,-0.0626658,-0.062665746,-0.062665686,-0.06266573,-0.06266567,-0.06266566,-0.06266565,-0.06266558,-0.06266553,-0.06266552,-0.062665485,-0.062665425,-0.06266539,-0.062665395,-0.06266541,-0.06266535,-0.0626654,-0.06266547,-0.06266549,-0.062665425,-0.06266547,-0.06266551,-0.06266557,-0.06266557,-0.06266558,-0.06266549,-0.06266538,-0.062665395,-0.06266544,-0.06266541,-0.0626654,-0.06266541,-0.06266543,-0.062665515,-0.062665366,-0.0626652,-0.06266566,-0.06266524,-0.06266478,-0.062664874,-0.06266505,-0.06266529,-0.062668264,-0.062664434,-0.06266626,-0.06265359,-0.062624216,-0.06269138,-0.06270537,-0.06265841,-0.06284647,-0.059898503,-0.05993739,-0.058899477,-0.06504903,-0.058518417,-0.057281014,-0.059431642,-0.05940276,-0.06067119,-0.060952578,-0.061463922,-0.061561733,-0.061502136,-0.061460122,-0.06143076,-0.061415166
0_3_8,-0.044279423,-0.04075684,-0.037012085,-0.031721294,-0.02728172,-0.025972664,-0.017386068,-0.013145906,-0.00957972,-0.0030340466,0.0018221479,0.007566908,0.01247779,0.01799768,0.024234636,0.030545466,0.037442483,0.043692376,0.050675765,0.057607565,0.06450963,0.07157609,0.07884643,0.085926004,0.093114085,0.100321606,0.10792088,0.114802405,0.12226759,0.12936093,0.13652672,0.14380649,0.15112501,0.15780318,0.16501816,0.17198382,0.17889798,0.18543573,0.19213961,0.19838792,0.20523502,0.21161519,0.21768014,0.22364214,0.22934242,0.23538333,0.24046715,0.24632813,0.2513523,0.2564761,0.2613686,0.26556313,0.27042156,0.2750067,0.27919683,0.28319445,0.28704792,0.29052266,0.29417953,0.29734844,0.3004,0.3033853,0.30611202,0.30874768,0.31111014,0.31357524,0.31566536,0.31777105,0.31953108,0.32147518,0.32297295,0.32450253,0.32590702,0.3271183,0.3282145,0.3292576,0.3301987,0.33112395,0.33190987,0.3325863,0.3333391,0.3338788,0.33438584,0.33487934,0.33530068,0.3356662,0.3359627,0.33625627,0.3365268,0.33673158,0.33695453,0.33711797,0.33727184,0.33738795,0.33750033,0.33757278,0.33766115,0.337719,0.33778146,0.33782855,0.33787084,0.33790594,0.33793542,0.33796015,0.33798134,0.33799776,0.33800897,0.33802184,0.33803245,0.33803737,0.33804145,0.33804455,0.3380483,0.33805037,0.33805123,0.33805248,0.33805388,0.33805487,0.3380551,0.33805558,0.33805558,0.33805558,0.33805558,0.33805558,0.33805558,0.33805558,0.33805558,0.33805558,0.33805558,0.33805558,0.33805558,0.33805558,0.33805558,0.33805558,0.33805558,0.33805558,0.33805558,0.33805558,0.33805558,0.33805558,0.33805558,0.33805558,0.33805558,0.33805558,0.33805558,0.33805558,0.33805558,0.33805558,0.33805558,0.33805558,0.33805558,0.33805558,0.33805558,0.33805558,0.33805558,0.33805558,0.33805558,0.33805558,0.33805558,0.33805558,0.33805558,0.33805558,0.33805558,0.33805558,0.33805558,0.33805558,0.33805558,0.33805507,0.338055,0.3380552,0.33805525,0.3380553,0.3380555,0.33805516,0.33805454,0.33805597,0.3380568,0.33805344,0.33807755,0.3381053,0.33803573,0.33802947,0.33800876,0.33827308,0.33706346,0.34243354,0.3444777,0.33684292,0.34063137,0.3384845,0.33797416,0.3390899,0.3398186,0.33992296,0.33966017,0.33985204,0.33981496,0.33986,0.33986756,0.33987376
0_3_9,-0.04368019,-0.047680262,-0.05316111,-0.057635732,-0.061256893,-0.062422268,-0.07117809,-0.07520277,-0.0793985,-0.083260745,-0.087854594,-0.091710284,-0.09728706,-0.10148968,-0.10631358,-0.11115687,-0.11495879,-0.11970459,-0.12428829,-0.1292458,-0.134264,-0.13928667,-0.14427753,-0.14942174,-0.15421773,-0.1594193,-0.16472192,-0.16965766,-0.17484139,-0.17990531,-0.18498099,-0.19029383,-0.19561873,-0.20032313,-0.20554699,-0.21064587,-0.21554862,-0.2204313,-0.2254524,-0.23002742,-0.23511654,-0.23979685,-0.24446066,-0.24880868,-0.2532185,-0.2577618,-0.2617597,-0.26629043,-0.26988247,-0.27382028,-0.27774143,-0.2809729,-0.2849192,-0.28872153,-0.29192284,-0.29516166,-0.29843035,-0.3012396,-0.30428463,-0.30679417,-0.30945203,-0.31204027,-0.31428263,-0.31662983,-0.31873566,-0.32101476,-0.3228373,-0.3247604,-0.32637468,-0.3283087,-0.32970625,-0.33119613,-0.33259147,-0.33372784,-0.33487675,-0.33591592,-0.3369004,-0.3378893,-0.33874053,-0.3394626,-0.340339,-0.3409625,-0.34154117,-0.34212938,-0.34265158,-0.34309942,-0.34346503,-0.34384573,-0.34420276,-0.3444814,-0.3447942,-0.34502602,-0.34525135,-0.3454254,-0.34559718,-0.3457122,-0.34585482,-0.34595054,-0.34605703,-0.34613904,-0.34621462,-0.34627962,-0.3463355,-0.34638435,-0.34642684,-0.3464611,-0.34648564,-0.34651428,-0.34653813,-0.3465506,-0.34656093,-0.34656873,-0.3465781,-0.34658372,-0.34658697,-0.34659028,-0.3465943,-0.34659678,-0.34659827,-0.3465998,-0.34660092,-0.34660205,-0.3466031,-0.34660333,-0.34660375,-0.34660375,-0.34660375,-0.34660375,-0.34660375,-0.34660375,-0.34660375,-0.34660375,-0.34660375,-0.34660375,-0.34660375,-0.34660375,-0.34660375,-0.34660375,-0.34660375,-0.34660375,-0.34660375,-0.34660375,-0.34660375,-0.34660375,-0.34660375,-0.34660375,-0.34660375,-0.34660375,-0.34660375,-0.34660375,-0.34660375,-0.34660375,-0.34660375,-0.34660375,-0.34660375,-0.34660375,-0.34660375,-0.34660375,-0.34660375,-0.34660375,-0.34660375,-0.34660375,-0.34660375,-0.34660375,-0.34660375,-0.34660375,-0.34660375,-0.34660348,-0.34660348,-0.34660345,-0.3466036,-0.3466039,-0.3466039,-0.34660363,-0.346603,-0.34660307,-0.34660542,-0.34660175,-0.3466291,-0.3466667,-0.34657487,-0.34656343,-0.34656408,-0.34672675,-0.34686866,-0.35263744,-0.35675314,-0.3415259,-0.3487572,-0.34704256,-0.34546015,-0.34666616,-0.3468347,-0.3468109,-0.34628457,-0.34644234,-0.34643146,-0.3464999,-0.3465221,-0.3465363
1_0_0,-0.029710349,-0.024375208,-0.025787523,-0.0246661,-0.034116864,-0.033314414,-0.03903034,-0.04379026,-0.044384915,-0.044484474,-0.044949472,-0.047239702,-0.050024744,-0.048599932,-0.04927072,-0.04855915,-0.050852336,-0.051189594,-0.051853213,-0.052210804,-0.0522125,-0.052450422,-0.052558877,-0.052569386,-0.05272442,-0.052824996,-0.052712888,-0.052510694,-0.05248646,-0.052545916,-0.052929927,-0.05271867,-0.052755687,-0.052739,-0.052555814,-0.052819822,-0.05278741,-0.052723203,-0.052737333,-0.052611586,-0.05263786,-0.052725084,-0.052671447,-0.052478578,-0.0526275,-0.052539486,-0.0527204,-0.052797344,-0.05256541,-0.052543104,-0.05241602,-0.052591324,-0.052737772,-0.05235597,-0.052641336,-0.05260151,-0.052427504,-0.052514233,-0.05238184,-0.052718394,-0.052575406,-0.052599113,-0.052344885,-0.052514106,-0.052459236,-0.05256782,-0.052533694,-0.052469116,-0.052680887,-0.05248397,-0.05253296,-0.052585922,-0.052445542,-0.052417733,-0.052550342,-0.05242819,-0.0525076,-0.05252066,-0.05247634,-0.052499156,-0.052463103,-0.052487478,-0.052472282,-0.05246769,-0.052463587,-0.052477755,-0.05250763,-0.052462537,-0.05247996,-0.05250702,-0.052475207,-0.052476868,-0.0524676,-0.05246601,-0.052483216,-0.052482188,-0.052484646,-0.05248502,-0.052479487,-0.05247618,-0.05248086,-0.0524821,-0.05247788,-0.05248029,-0.05247806,-0.052479915,-0.052479673,-0.052480277,-0.05248123,-0.05248143,-0.052481387,-0.05248087,-0.052480802,-0.052481197,-0.052480843,-0.052481253,-0.05248068,-0.052480906,-0.05248086,-0.052480906,-0.052480828,-0.05248077,-0.052480746,-0.052480735,-0.052480746,-0.052480787,-0.052480724,-0.052480727,-0.052480724,-0.052480705,-0.052480698,-0.052480705,-0.05248073,-0.052480727,-0.05248072,-0.052480686,-0.052480683,-0.05248069,-0.05248069,-0.052480698,-0.05248069,-0.052480686,-0.052480664,-0.05248067,-0.05248068,-0.052480686,-0.05248068,-0.052480686,-0.052480716,-0.0524807,-0.05248072,-0.052480698,-0.052480724,-0.052480713,-0.052480694,-0.052480698,-0.052480698,-0.052480686,-0.05248069,-0.052480675,-0.052480664,-0.052480638,-0.05248066,-0.05248065,-0.052480645,-0.052480634,-0.052480638,-0.05248061,-0.052480627,-0.05248064,-0.052480612,-0.0524806,-0.05248071,-0.052480638,-0.05248073,-0.052480675,-0.052480802,-0.052480225,-0.052480992,-0.052479934,-0.052486036,-0.05248237,-0.052489154,-0.05248941,-0.05302157,-0.052898467,-0.05047229,-0.05244326,-0.051793993,-0.052820247,-0.052532382,-0.05266138,-0.052686144,-0.05257842,-0.05261041,-0.05261779,-0.05260804,-0.052601133,-0.052608706,-0.052608702
1_0_1,-0.15953474,-0.19153604,-0.22865056,-0.26148865,-0.2971445,-0.32457644,-0.34590346,-0.35979787,-0.3678025,-0.37184158,-0.37361526,-0.3744678,-0.37469852,-0.3747916,-0.37469134,-0.37461594,-0.37459576,-0.37479317,-0.3746438,-0.37481588,-0.37460756,-0.37464073,-0.37445414,-0.37458098,-0.3745372,-0.3745512,-0.37439242,-0.37431756,-0.37439126,-0.3742258,-0.37441644,-0.37438744,-0.37413168,-0.3742062,-0.3742226,-0.37424457,-0.37428662,-0.37427613,-0.37415794,-0.37421405,-0.37426582,-0.37392917,-0.37407333,-0.37406996,-0.37410703,-0.37396377,-0.37413937,-0.37407726,-0.37389186,-0.37391156,-0.37391302,-0.37389067,-0.37390086,-0.3737866,-0.37391874,-0.37391987,-0.37368363,-0.3738738,-0.3737931,-0.37406486,-0.37379685,-0.37381747,-0.3737254,-0.37383494,-0.3737492,-0.37382704,-0.3738352,-0.37381563,-0.37386003,-0.3738001,-0.3738067,-0.373835,-0.37373695,-0.37372765,-0.3738207,-0.37373456,-0.37379792,-0.3737868,-0.37377045,-0.37378076,-0.37375155,-0.37377292,-0.3737682,-0.3737605,-0.3737564,-0.37376842,-0.37379137,-0.37375996,-0.3737666,-0.37378147,-0.37376606,-0.3737642,-0.37376097,-0.37375942,-0.37376988,-0.37376952,-0.3737708,-0.37377074,-0.37376788,-0.37376624,-0.37376872,-0.37376937,-0.37376732,-0.3737684,-0.37376732,-0.37376833,-0.37376815,-0.3737685,-0.373769,-0.3737691,-0.37376904,-0.37376893,-0.37376884,-0.37376902,-0.3737688,-0.37376902,-0.37376878,-0.3737688,-0.3737688,-0.37376884,-0.37376884,-0.37376884,-0.37376884,-0.37376884,-0.37376884,-0.37376884,-0.37376884,-0.37376884,-0.37376884,-0.37376884,-0.37376884,-0.37376884,-0.37376884,-0.37376884,-0.37376884,-0.37376884,-0.37376884,-0.37376884,-0.37376884,-0.37376884,-0.37376884,-0.37376884,-0.37376884,-0.37376884,-0.37376884,-0.37376884,-0.37376884,-0.37376884,-0.37376884,-0.37376884,-0.37376884,-0.37376884,-0.37376884,-0.37376884,-0.37376884,-0.37376884,-0.37376884,-0.37376884,-0.37376884,-0.37376884,-0.37376884,-0.37376884,-0.37376884,-0.37376884,-0.37376884,-0.37376884,-0.37376884,-0.37376887,-0.37376875,-0.37376872,-0.37376872,-0.37376872,-0.37376872,-0.37376863,-0.37376857,-0.3737688,-0.37376887,-0.3737684,-0.37376833,-0.3737688,-0.37377408,-0.37377065,-0.37377742,-0.3737806,-0.3735111,-0.3734077,-0.37648365,-0.37572104,-0.37337255,-0.3737413,-0.37371683,-0.3736954,-0.37383625,-0.37368718,-0.3736711,-0.3736859,-0.37368506,-0.37368238,-0.373685,-0.37368613
1_1_0,0.08237665,0.093519345,0.095625326,0.10989988,0.11677109,0.13087814,0.13957542,0.14794284,0.16564575,0.18189582,0.19675696,0.20990002,0.22147442,0.23823686,0.24883708,0.26062238,0.26953188,0.2765488,0.2822789,0.28669474,0.28981382,0.29189476,0.29378676,0.29440895,0.29536498,0.29569048,0.2961531,0.29641992,0.29686886,0.29668418,0.29632768,0.2965937,0.29674488,0.29673094,0.29674438,0.29658267,0.29659832,0.29674724,0.29694244,0.29698655,0.29699668,0.29706088,0.29695976,0.29707578,0.29691997,0.2972319,0.29706496,0.2969838,0.29712936,0.2972586,0.2972951,0.29723617,0.29716992,0.2973747,0.29724237,0.29733625,0.297568,0.29753304,0.2975819,0.29733837,0.29742283,0.29748666,0.29766625,0.2976133,0.29758787,0.29757354,0.297591,0.29767364,0.2974506,0.2976894,0.29761535,0.29756284,0.29772192,0.297716,0.29768944,0.29777732,0.29772696,0.2976938,0.29773226,0.29774648,0.2977719,0.29774556,0.29776335,0.2977578,0.2977543,0.29774037,0.29776734,0.29777342,0.29776248,0.29774478,0.2977721,0.29778272,0.29779506,0.29777244,0.29778627,0.29777813,0.29777336,0.29777953,0.2977805,0.29778796,0.29778495,0.2977877,0.2977828,0.29778147,0.29778412,0.2977827,0.29778147,0.29778242,0.29778045,0.29778212,0.2977816,0.2977822,0.297783,0.297782,0.29778236,0.29778212,0.29778218,0.29778248,0.2977825,0.29778233,0.29778236,0.29778233,0.2977822,0.29778233,0.29778233,0.29778233,0.29778233,0.29778233,0.29778233,0.29778233,0.29778233,0.29778233,0.29778233,0.29778233,0.29778233,0.29778233,0.29778233,0.29778233,0.29778233,0.29778233,0.29778233,0.29778233,0.29778233,0.29778233,0.29778233,0.29778233,0.29778233,0.29778233,0.29778233,0.29778233,0.29778233,0.29778233,0.29778233,0.29778233,0.29778233,0.29778233,0.29778233,0.29778233,0.29778233,0.29778233,0.29778233,0.29778233,0.29778233,0.29778233,0.29778233,0.29778233,0.29778233,0.29778233,0.29778233,0.2977823,0.2977823,0.2977823,0.29778245,0.29778242,0.29778233,0.2977822,0.29778215,0.29778185,0.29778168,0.29778513,0.29778093,0.29778117,0.29776856,0.2977602,0.2978353,0.29904425,0.29756495,0.30112958,0.29951614,0.29836482,0.29778206,0.29792225,0.29772186,0.2979215,0.29793605,0.29793447,0.2979401,0.2979427,0.29794043,0.29793862
